{"learner":{"attributes":{"scikit_learn":"{\"_estimator_type\": \"classifier\"}"},"feature_names":["url_length","path_length","query_string_length","payload_length","special_char_count","digit_count","uppercase_count","lowercase_count","dot_count","slash_count","percent_encoding_count","null_byte_count","path_depth","query_param_count","has_ip_in_url","is_https","payload_entropy","special_char_ratio","digit_ratio","sql_keyword_count","sql_comment_sequence_count","sql_boolean_logic_count","nosql_operator_count","command_injection_count","xss_keyword_count","xss_event_handler_count","xss_context_break_count","path_traversal_sequence_count","path_traversal_depth","lfi_wrapper_usage","ssrf_indicator_count","open_redirect_param_count","has_user_agent","user_agent_length","user_agent_known_bot","header_order_anomaly","has_cookie","cookie_count","has_referer","has_origin","has_authorization","has_content_security_policy","has_strict_transport_security","has_x_frame_options","status_code","response_length","response_time","contains_error","is_redirect","response_entropy","secure_cookie_present","httponly_cookie_present","server_header_present","missing_security_headers_count","request_anomaly_score"],"feature_types":["int","int","int","int","int","int","int","int","int","int","int","int","int","int","int","int","float","float","float","int","int","int","int","int","int","int","int","int","int","int","int","int","int","int","int","int","int","int","int","int","int","int","int","int","int","int","float","int","int","float","int","int","int","int","float"],"gradient_booster":{"model":{"cats":{"enc":[],"feature_segments":[],"sorted_idx":[]},"gbtree_model_param":{"num_parallel_tree":"1","num_trees":"2400"},"iteration_indptr":[0,8,16,24,32,40,48,56,64,72,80,88,96,104,112,120,128,136,144,152,160,168,176,184,192,200,208,216,224,232,240,248,256,264,272,280,288,296,304,312,320,328,336,344,352,360,368,376,384,392,400,408,416,424,432,440,448,456,464,472,480,488,496,504,512,520,528,536,544,552,560,568,576,584,592,600,608,616,624,632,640,648,656,664,672,680,688,696,704,712,720,728,736,744,752,760,768,776,784,792,800,808,816,824,832,840,848,856,864,872,880,888,896,904,912,920,928,936,944,952,960,968,976,984,992,1000,1008,1016,1024,1032,1040,1048,1056,1064,1072,1080,1088,1096,1104,1112,1120,1128,1136,1144,1152,1160,1168,1176,1184,1192,1200,1208,1216,1224,1232,1240,1248,1256,1264,1272,1280,1288,1296,1304,1312,1320,1328,1336,1344,1352,1360,1368,1376,1384,1392,1400,1408,1416,1424,1432,1440,1448,1456,1464,1472,1480,1488,1496,1504,1512,1520,1528,1536,1544,1552,1560,1568,1576,1584,1592,1600,1608,1616,1624,1632,1640,1648,1656,1664,1672,1680,1688,1696,1704,1712,1720,1728,1736,1744,1752,1760,1768,1776,1784,1792,1800,1808,1816,1824,1832,1840,1848,1856,1864,1872,1880,1888,1896,1904,1912,1920,1928,1936,1944,1952,1960,1968,1976,1984,1992,2000,2008,2016,2024,2032,2040,2048,2056,2064,2072,2080,2088,2096,2104,2112,2120,2128,2136,2144,2152,2160,2168,2176,2184,2192,2200,2208,2216,2224,2232,2240,2248,2256,2264,2272,2280,2288,2296,2304,2312,2320,2328,2336,2344,2352,2360,2368,2376,2384,2392,2400],"tree_info":[0,1,2,3,4,5,6,7,0,1,2,3,4,5,6,7,0,1,2,3,4,5,6,7,0,1,2,3,4,5,6,7,0,1,2,3,4,5,6,7,0,1,2,3,4,5,6,7,0,1,2,3,4,5,6,7,0,1,2,3,4,5,6,7,0,1,2,3,4,5,6,7,0,1,2,3,4,5,6,7,0,1,2,3,4,5,6,7,0,1,2,3,4,5,6,7,0,1,2,3,4,5,6,7,0,1,2,3,4,5,6,7,0,1,2,3,4,5,6,7,0,1,2,3,4,5,6,7,0,1,2,3,4,5,6,7,0,1,2,3,4,5,6,7,0,1,2,3,4,5,6,7,0,1,2,3,4,5,6,7,0,1,2,3,4,5,6,7,0,1,2,3,4,5,6,7,0,1,2,3,4,5,6,7,0,1,2,3,4,5,6,7,0,1,2,3,4,5,6,7,0,1,2,3,4,5,6,7,0,1,2,3,4,5,6,7,0,1,2,3,4,5,6,7,0,1,2,3,4,5,6,7,0,1,2,3,4,5,6,7,0,1,2,3,4,5,6,7,0,1,2,3,4,5,6,7,0,1,2,3,4,5,6,7,0,1,2,3,4,5,6,7,0,1,2,3,4,5,6,7,0,1,2,3,4,5,6,7,0,1,2,3,4,5,6,7,0,1,2,3,4,5,6,7,0,1,2,3,4,5,6,7,0,1,2,3,4,5,6,7,0,1,2,3,4,5,6,7,0,1,2,3,4,5,6,7,0,1,2,3,4,5,6,7,0,1,2,3,4,5,6,7,0,1,2,3,4,5,6,7,0,1,2,3,4,5,6,7,0,1,2,3,4,5,6,7,0,1,2,3,4,5,6,7,0,1,2,3,4,5,6,7,0,1,2,3,4,5,6,7,0,1,2,3,4,5,6,7,0,1,2,3,4,5,6,7,0,1,2,3,4,5,6,7,0,1,2,3,4,5,6,7,0,1,2,3,4,5,6,7,0,1,2,3,4,5,6,7,0,1,2,3,4,5,6,7,0,1,2,3,4,5,6,7,0,1,2,3,4,5,6,7,0,1,2,3,4,5,6,7,0,1,2,3,4,5,6,7,0,1,2,3,4,5,6,7,0,1,2,3,4,5,6,7,0,1,2,3,4,5,6,7,0,1,2,3,4,5,6,7,0,1,2,3,4,5,6,7,0,1,2,3,4,5,6,7,0,1,2,3,4,5,6,7,0,1,2,3,4,5,6,7,0,1,2,3,4,5,6,7,0,1,2,3,4,5,6,7,0,1,2,3,4,5,6,7,0,1,2,3,4,5,6,7,0,1,2,3,4,5,6,7,0,1,2,3,4,5,6,7,0,1,2,3,4,5,6,7,0,1,2,3,4,5,6,7,0,1,2,3,4,5,6,7,0,1,2,3,4,5,6,7,0,1,2,3,4,5,6,7,0,1,2,3,4,5,6,7,0,1,2,3,4,5,6,7,0,1,2,3,4,5,6,7,0,1,2,3,4,5,6,7,0,1,2,3,4,5,6,7,0,1,2,3,4,5,6,7,0,1,2,3,4,5,6,7,0,1,2,3,4,5,6,7,0,1,2,3,4,5,6,7,0,1,2,3,4,5,6,7,0,1,2,3,4,5,6,7,0,1,2,3,4,5,6,7,0,1,2,3,4,5,6,7,0,1,2,3,4,5,6,7,0,1,2,3,4,5,6,7,0,1,2,3,4,5,6,7,0,1,2,3,4,5,6,7,0,1,2,3,4,5,6,7,0,1,2,3,4,5,6,7,0,1,2,3,4,5,6,7,0,1,2,3,4,5,6,7,0,1,2,3,4,5,6,7,0,1,2,3,4,5,6,7,0,1,2,3,4,5,6,7,0,1,2,3,4,5,6,7,0,1,2,3,4,5,6,7,0,1,2,3,4,5,6,7,0,1,2,3,4,5,6,7,0,1,2,3,4,5,6,7,0,1,2,3,4,5,6,7,0,1,2,3,4,5,6,7,0,1,2,3,4,5,6,7,0,1,2,3,4,5,6,7,0,1,2,3,4,5,6,7,0,1,2,3,4,5,6,7,0,1,2,3,4,5,6,7,0,1,2,3,4,5,6,7,0,1,2,3,4,5,6,7,0,1,2,3,4,5,6,7,0,1,2,3,4,5,6,7,0,1,2,3,4,5,6,7,0,1,2,3,4,5,6,7,0,1,2,3,4,5,6,7,0,1,2,3,4,5,6,7,0,1,2,3,4,5,6,7,0,1,2,3,4,5,6,7,0,1,2,3,4,5,6,7,0,1,2,3,4,5,6,7,0,1,2,3,4,5,6,7,0,1,2,3,4,5,6,7,0,1,2,3,4,5,6,7,0,1,2,3,4,5,6,7,0,1,2,3,4,5,6,7,0,1,2,3,4,5,6,7,0,1,2,3,4,5,6,7,0,1,2,3,4,5,6,7,0,1,2,3,4,5,6,7,0,1,2,3,4,5,6,7,0,1,2,3,4,5,6,7,0,1,2,3,4,5,6,7,0,1,2,3,4,5,6,7,0,1,2,3,4,5,6,7,0,1,2,3,4,5,6,7,0,1,2,3,4,5,6,7,0,1,2,3,4,5,6,7,0,1,2,3,4,5,6,7,0,1,2,3,4,5,6,7,0,1,2,3,4,5,6,7,0,1,2,3,4,5,6,7,0,1,2,3,4,5,6,7,0,1,2,3,4,5,6,7,0,1,2,3,4,5,6,7,0,1,2,3,4,5,6,7,0,1,2,3,4,5,6,7,0,1,2,3,4,5,6,7,0,1,2,3,4,5,6,7,0,1,2,3,4,5,6,7,0,1,2,3,4,5,6,7,0,1,2,3,4,5,6,7,0,1,2,3,4,5,6,7,0,1,2,3,4,5,6,7,0,1,2,3,4,5,6,7,0,1,2,3,4,5,6,7,0,1,2,3,4,5,6,7,0,1,2,3,4,5,6,7,0,1,2,3,4,5,6,7,0,1,2,3,4,5,6,7,0,1,2,3,4,5,6,7,0,1,2,3,4,5,6,7,0,1,2,3,4,5,6,7,0,1,2,3,4,5,6,7,0,1,2,3,4,5,6,7,0,1,2,3,4,5,6,7,0,1,2,3,4,5,6,7,0,1,2,3,4,5,6,7,0,1,2,3,4,5,6,7,0,1,2,3,4,5,6,7,0,1,2,3,4,5,6,7,0,1,2,3,4,5,6,7,0,1,2,3,4,5,6,7,0,1,2,3,4,5,6,7,0,1,2,3,4,5,6,7,0,1,2,3,4,5,6,7,0,1,2,3,4,5,6,7,0,1,2,3,4,5,6,7,0,1,2,3,4,5,6,7,0,1,2,3,4,5,6,7,0,1,2,3,4,5,6,7,0,1,2,3,4,5,6,7,0,1,2,3,4,5,6,7,0,1,2,3,4,5,6,7,0,1,2,3,4,5,6,7,0,1,2,3,4,5,6,7,0,1,2,3,4,5,6,7,0,1,2,3,4,5,6,7,0,1,2,3,4,5,6,7,0,1,2,3,4,5,6,7,0,1,2,3,4,5,6,7,0,1,2,3,4,5,6,7,0,1,2,3,4,5,6,7,0,1,2,3,4,5,6,7,0,1,2,3,4,5,6,7,0,1,2,3,4,5,6,7,0,1,2,3,4,5,6,7,0,1,2,3,4,5,6,7,0,1,2,3,4,5,6,7,0,1,2,3,4,5,6,7,0,1,2,3,4,5,6,7,0,1,2,3,4,5,6,7,0,1,2,3,4,5,6,7,0,1,2,3,4,5,6,7,0,1,2,3,4,5,6,7,0,1,2,3,4,5,6,7,0,1,2,3,4,5,6,7,0,1,2,3,4,5,6,7,0,1,2,3,4,5,6,7,0,1,2,3,4,5,6,7,0,1,2,3,4,5,6,7,0,1,2,3,4,5,6,7,0,1,2,3,4,5,6,7,0,1,2,3,4,5,6,7,0,1,2,3,4,5,6,7,0,1,2,3,4,5,6,7,0,1,2,3,4,5,6,7,0,1,2,3,4,5,6,7,0,1,2,3,4,5,6,7,0,1,2,3,4,5,6,7,0,1,2,3,4,5,6,7,0,1,2,3,4,5,6,7,0,1,2,3,4,5,6,7,0,1,2,3,4,5,6,7,0,1,2,3,4,5,6,7,0,1,2,3,4,5,6,7,0,1,2,3,4,5,6,7,0,1,2,3,4,5,6,7,0,1,2,3,4,5,6,7,0,1,2,3,4,5,6,7,0,1,2,3,4,5,6,7,0,1,2,3,4,5,6,7,0,1,2,3,4,5,6,7,0,1,2,3,4,5,6,7,0,1,2,3,4,5,6,7,0,1,2,3,4,5,6,7,0,1,2,3,4,5,6,7,0,1,2,3,4,5,6,7,0,1,2,3,4,5,6,7,0,1,2,3,4,5,6,7,0,1,2,3,4,5,6,7,0,1,2,3,4,5,6,7,0,1,2,3,4,5,6,7,0,1,2,3,4,5,6,7,0,1,2,3,4,5,6,7,0,1,2,3,4,5,6,7,0,1,2,3,4,5,6,7,0,1,2,3,4,5,6,7,0,1,2,3,4,5,6,7,0,1,2,3,4,5,6,7,0,1,2,3,4,5,6,7,0,1,2,3,4,5,6,7,0,1,2,3,4,5,6,7,0,1,2,3,4,5,6,7,0,1,2,3,4,5,6,7,0,1,2,3,4,5,6,7,0,1,2,3,4,5,6,7,0,1,2,3,4,5,6,7,0,1,2,3,4,5,6,7,0,1,2,3,4,5,6,7,0,1,2,3,4,5,6,7,0,1,2,3,4,5,6,7,0,1,2,3,4,5,6,7,0,1,2,3,4,5,6,7,0,1,2,3,4,5,6,7,0,1,2,3,4,5,6,7,0,1,2,3,4,5,6,7,0,1,2,3,4,5,6,7,0,1,2,3,4,5,6,7,0,1,2,3,4,5,6,7,0,1,2,3,4,5,6,7,0,1,2,3,4,5,6,7,0,1,2,3,4,5,6,7,0,1,2,3,4,5,6,7,0,1,2,3,4,5,6,7,0,1,2,3,4,5,6,7,0,1,2,3,4,5,6,7,0,1,2,3,4,5,6,7,0,1,2,3,4,5,6,7,0,1,2,3,4,5,6,7,0,1,2,3,4,5,6,7,0,1,2,3,4,5,6,7,0,1,2,3,4,5,6,7,0,1,2,3,4,5,6,7,0,1,2,3,4,5,6,7,0,1,2,3,4,5,6,7,0,1,2,3,4,5,6,7,0,1,2,3,4,5,6,7,0,1,2,3,4,5,6,7,0,1,2,3,4,5,6,7,0,1,2,3,4,5,6,7,0,1,2,3,4,5,6,7,0,1,2,3,4,5,6,7],"trees":[{"base_weights":[-3.0580084E-3,-8.6714074E-2,9.5559824E-1,1.129934E0,-8.612938E-2,-7.9438776E-2,1.1454574E0,1.1536252E0,-7.359688E-2,1.1593189E0,-6.882935E-2,1.1790607E-1,1.024864E0,-8.076878E-2,1.1733719E-1],"categories":[],"categories_nodes":[],"categories_segments":[],"categories_sizes":[],"default_left":[0,0,0,0,0,0,0,0,0,0,0,0,0,0,0],"id":0,"left_children":[1,-1,3,5,-1,-1,7,9,-1,11,-1,-1,13,-1,-1],"loss_changes":[3.0312551E3,0E0,5.504635E2,4.8241455E1,0E0,0E0,2.503418E1,1.7254639E1,0E0,2.7128906E0,0E0,0E0,5.760933E1,0E0,0E0],"parents":[2147483647,0,0,2,2,3,3,6,6,7,7,9,9,12,12],"right_children":[2,-1,4,6,-1,-1,8,10,-1,12,-1,-1,14,-1,-1],"split_conditions":[2E0,-8.6714074E-2,1E0,1E0,-8.612938E-2,-7.9438776E-2,2.2E1,1.8E1,-7.359688E-2,2E0,-6.882935E-2,1.1790607E-1,9E0,-8.076878E-2,1.1733719E-1],"split_indices":[12,0,47,15,0,0,2,4,0,8,0,0,4,0,0],"split_type":[0,0,0,0,0,0,0,0,0,0,0,0,0,0,0],"sum_hessian":[3.6573633E3,1.9236686E3,1.7336947E3,1.5823016E3,1.5139305E2,1.2209118E1,1.5700925E3,1.5637438E3,6.348741E0,1.5593485E3,4.3952823E0,1.3522819E3,2.0706664E2,1.5139305E1,1.9192732E2],"tree_param":{"num_deleted":"0","num_feature":"55","num_nodes":"15","size_leaf_vector":"1"}},{"base_weights":[-5.1053907E-3,2.6496065E0,-5.7233125E-2,3.9144117E-1,-5.6486856E-2],"categories":[],"categories_nodes":[],"categories_segments":[],"categories_sizes":[],"default_left":[0,0,0,0,0],"id":1,"left_children":[1,3,-1,-1,-1],"loss_changes":[2.5388328E3,1.2093145E3,0E0,0E0,0E0],"parents":[2147483647,0,0,1,1],"right_children":[2,4,-1,-1,-1],"split_conditions":[1E0,3.6E1,-5.7233125E-2,3.9144117E-1,-5.6486856E-2],"split_indices":[15,7,0,0,0],"split_type":[0,0,0,0,0],"sum_hessian":[1.6841431E3,2.95818E2,1.3883251E3,2.1215454E2,8.366345E1],"tree_param":{"num_deleted":"0","num_feature":"55","num_nodes":"5","size_leaf_vector":"1"}},{"base_weights":[-1.9155599E-3,-5.7234384E-2,3.3414211E0,-5.49405E-2,3.845051E0,-4.1738726E-2,3.9143324E-1],"categories":[],"categories_nodes":[],"categories_segments":[],"categories_sizes":[],"default_left":[0,0,0,0,0,0,0],"id":2,"left_children":[1,-1,3,-1,5,-1,-1],"loss_changes":[3.1841099E3,0E0,4.7926685E2,0E0,6.565039E1,0E0,0E0],"parents":[2147483647,0,0,2,2,4,4],"right_children":[2,-1,4,-1,6,-1,-1],"split_conditions":[1E0,-5.7234384E-2,2E0,-5.49405E-2,1.4E1,-4.1738726E-2,3.9143324E-1],"split_indices":[24,0,5,0,4,0,0],"split_type":[0,0,0,0,0,0,0],"sum_hessian":[1.6677211E3,1.4253855E3,2.4233551E2,2.7739872E1,2.1459564E2,3.3287845E0,2.1126686E2],"tree_param":{"num_deleted":"0","num_feature":"55","num_nodes":"7","size_leaf_vector":"1"}},{"base_weights":[1.1185782E-2,-2.4727663E-1,6.899108E-1,-3.6286277E-1,6.8691254E-1,-5.3558033E-2,1.0792935E0,5.8614594E-1,6.4496577E-1,1.8638812E-2,3.4515467E0,3.618687E-1,-2.2432372E-1,6.491144E-1,-4.5090538E-2,-4.1126084E-1,6.9829696E-1,-4.8572894E-2,8.66294E-4,3.2905525E-1,-4.691581E-2],"categories":[],"categories_nodes":[],"categories_segments":[],"categories_sizes":[],"default_left":[0,0,0,0,0,0,0,0,0,0,0,0,0,0,0,0,0,0,0,0,0],"id":3,"left_children":[1,3,-1,5,-1,-1,7,9,-1,11,13,-1,15,-1,-1,17,19,-1,-1,-1,-1],"loss_changes":[1.7042399E3,7.605183E2,0E0,2.268332E2,0E0,0E0,2.535853E2,1.4653546E2,0E0,6.803034E1,1.8032202E2,0E0,1.2770139E1,0E0,0E0,1.9607105E0,3.9662807E1,0E0,0E0,0E0,0E0],"parents":[2147483647,0,0,1,1,3,3,6,6,7,7,9,9,10,10,12,12,15,15,16,16],"right_children":[2,4,-1,6,-1,-1,8,10,-1,12,14,-1,16,-1,-1,18,20,-1,-1,-1,-1],"split_conditions":[4.9683094E0,1E0,6.899108E-1,7E0,6.8691254E-1,-5.3558033E-2,3.020233E0,1.369863E-1,6.4496577E-1,2.0967741E-1,1E0,3.618687E-1,8.450704E-2,6.491144E-1,-4.5090538E-2,2.0840342E0,6E0,-4.8572894E-2,8.66294E-4,3.2905525E-1,-4.691581E-2],"split_indices":[46,14,0,9,0,0,46,18,0,17,10,0,18,0,0,46,10,0,0,0,0],"split_type":[0,0,0,0,0,0,0,0,0,0,0,0,0,0,0,0,0,0,0,0,0],"sum_hessian":[9.549614E2,9.213387E2,3.362273E1,9.075609E2,1.3777736E1,8.111168E2,9.644415E1,8.936568E1,7.0784698E0,7.546154E1,1.3904137E1,3.9184387E0,7.1543106E1,7.4576735E0,6.4464636E0,6.0040592E1,1.1502513E1,5.1066105E1,8.974488E0,3.03363E0,8.4688835E0],"tree_param":{"num_deleted":"0","num_feature":"55","num_nodes":"21","size_leaf_vector":"1"}},{"base_weights":[-1.4204351E-2,-3.4636268E-1,7.1973157E-1,-4.8095345E-1,5.987038E0,-5.2521485E-1,7.088315E-1,6.908982E-1,8.113959E-2,-5.321012E-2,-0E0,5.8932483E-1,-2.3257753E-1,-4.5633893E-2,6.785848E-2,-5.113057E-2,1.5551428E-1],"categories":[],"categories_nodes":[],"categories_segments":[],"categories_sizes":[],"default_left":[0,0,0,0,0,0,0,0,0,0,0,0,0,0,0,0,0],"id":4,"left_children":[1,3,-1,5,7,9,11,-1,-1,-1,13,-1,15,-1,-1,-1,-1],"loss_changes":[2.2892634E3,7.813273E2,0E0,4.7527832E1,8.464313E1,3.1080322E0,1.6043073E2,0E0,0E0,0E0,4.095425E0,0E0,1.4856634E1,0E0,0E0,0E0,0E0],"parents":[2147483647,0,0,1,1,3,3,4,4,5,5,6,6,10,10,12,12],"right_children":[2,4,-1,6,8,10,12,-1,-1,-1,14,-1,16,-1,-1,-1,-1],"split_conditions":[1E1,1.2E1,7.1973157E-1,2E0,3.75E0,1E0,2E0,6.908982E-1,8.113959E-2,-5.321012E-2,4.01E2,5.8932483E-1,1.2E1,-4.5633893E-2,6.785848E-2,-5.113057E-2,1.5551428E-1],"split_indices":[8,10,0,10,16,27,6,0,0,0,44,0,6,0,0,0,0],"split_type":[0,0,0,0,0,0,0,0,0,0,0,0,0,0,0,0,0],"sum_hessian":[9.539502E2,9.128698E2,4.1080406E1,8.9479443E2,1.8075378E1,8.633205E2,3.147391E1,1.5041748E1,3.03363E0,8.520708E2,1.1249711E1,4.04484E0,2.742907E1,6.9520683E0,4.297642E0,2.4395441E1,3.03363E0],"tree_param":{"num_deleted":"0","num_feature":"55","num_nodes":"17","size_leaf_vector":"1"}},{"base_weights":[6.314125E-3,2.453133E0,-5.2574553E-2,-5.2007347E-2,9.576179E-1],"categories":[],"categories_nodes":[],"categories_segments":[],"categories_sizes":[],"default_left":[0,0,0,0,0],"id":5,"left_children":[1,3,-1,-1,-1],"loss_changes":[9.549215E2,2.7806492E3,0E0,0E0,0E0],"parents":[2147483647,0,0,1,1],"right_children":[2,4,-1,-1,-1],"split_conditions":[1E0,3.6E1,-5.2574553E-2,-5.2007347E-2,9.576179E-1],"split_indices":[42,7,0,0,0],"split_type":[0,0,0,0,0],"sum_hessian":[7.3137036E2,1.3001926E2,6.0135114E2,9.237448E1,3.764477E1],"tree_param":{"num_deleted":"0","num_feature":"55","num_nodes":"5","size_leaf_vector":"1"}},{"base_weights":[1.998623E-3,5.2221804E0,-2.8961027E-1,-4.481441E-2,5.793559E-1,5.514921E-1,-3.7208608E-1,-4.3226203E-1,6.0721606E-1,-4.6352246E-1,2.4092324E-1,5.413139E-1,-5.339503E-2,-5.4522704E-2,-3.33166E-1,4.9887666E-1,-5.3042203E-2,-4.0207022E-1,4.7435704E-1,5.0312686E-1,-5.443262E-2,3.0554393E-1,-5.291831E-2],"categories":[],"categories_nodes":[],"categories_segments":[],"categories_sizes":[],"default_left":[0,0,0,0,0,0,0,0,0,0,0,0,0,0,0,0,0,0,0,0,0,0,0],"id":6,"left_children":[1,3,5,-1,-1,-1,7,9,11,13,15,-1,-1,-1,17,-1,-1,19,-1,21,-1,-1,-1],"loss_changes":[1.782876E3,2.0389258E2,5.324181E2,0E0,0E0,0E0,6.473517E1,2.1844543E1,3.5257748E2,1.02361145E1,1.7264386E2,0E0,0E0,0E0,1.354782E2,0E0,0E0,4.906787E1,0E0,1.3856734E2,0E0,0E0,0E0],"parents":[2147483647,0,0,1,1,2,2,6,6,7,7,8,8,9,9,10,10,14,14,17,17,19,19],"right_children":[2,4,6,-1,-1,-1,8,10,12,14,16,-1,-1,-1,18,-1,-1,20,-1,22,-1,-1,-1],"split_conditions":[2.7E1,2E0,1.1E1,-4.481441E-2,5.793559E-1,5.514921E-1,1E0,3E0,3E0,2E0,3E0,5.413139E-1,-5.339503E-2,-5.4522704E-2,1E0,4.9887666E-1,-5.3042203E-2,3E0,4.7435704E-1,2E0,-5.443262E-2,3.0554393E-1,-5.291831E-2],"split_indices":[0,8,33,0,0,0,48,28,3,8,3,0,0,0,21,0,0,3,0,12,0,0,0],"split_type":[0,0,0,0,0,0,0,0,0,0,0,0,0,0,0,0,0,0,0,0,0,0,0],"sum_hessian":[1.1688923E3,6.096545E1,1.1079269E3,5.5846214E0,5.538083E1,1.45820675E1,1.0933447E3,1.030673E3,6.2671864E1,9.853754E2,4.5297485E1,1.1324371E1,5.1347492E1,6.0329425E2,3.8208118E2,5.5846214E0,3.9712864E1,3.7789273E2,4.188466E0,5.0882107E1,3.2701062E2,1.4116682E1,3.6765427E1],"tree_param":{"num_deleted":"0","num_feature":"55","num_nodes":"23","size_leaf_vector":"1"}},{"base_weights":[-4.267357E-3,-1.3833673E-1,8.917338E-1,-2.6581728E-1,5.5144687E0,-3.864544E-1,1.1554683E0,8.8656723E-1,-4.3316573E-2,-9.3011975E-2,-5.2537024E-2,8.8375896E-1,-5.1332414E-2,-4.0857443E-1,1.8783491E0,1.9953732E-1,-5.1634634E-1,-3.3851262E-2,8.349536E-1,3.760523E-1,-5.0105494E-2,-5.226746E-2,-1.5523605E-2,7.4122536E-1,-4.8654374E-2,2.141869E-1,-4.1739415E-2],"categories":[],"categories_nodes":[],"categories_segments":[],"categories_sizes":[],"default_left":[0,0,0,0,0,0,0,0,0,0,0,0,0,0,0,0,0,0,0,0,0,0,0,0,0,0,0],"id":7,"left_children":[1,3,-1,5,7,9,11,-1,-1,13,-1,-1,-1,15,17,19,21,23,-1,-1,-1,-1,-1,25,-1,-1,-1],"loss_changes":[8.762389E2,5.215392E2,0E0,1.21671776E2,3.228217E2,2.650521E1,7.1734143E2,0E0,0E0,1.3202501E2,0E0,0E0,0E0,1.2124754E1,3.6345377E2,7.2372765E1,2.0716476E-1,8.611125E0,0E0,0E0,0E0,0E0,0E0,1.5690559E1,0E0,0E0,0E0],"parents":[2147483647,0,0,1,1,3,3,4,4,5,5,6,6,9,9,13,13,14,14,15,15,16,16,17,17,23,23],"right_children":[2,4,-1,6,8,10,12,-1,-1,14,-1,-1,-1,16,18,20,22,24,-1,-1,-1,-1,-1,26,-1,-1,-1],"split_conditions":[2E0,1.4E1,8.917338E-1,1E0,3.7E1,9E0,1E0,8.8656723E-1,-4.3316573E-2,1E0,-5.2537024E-2,8.8375896E-1,-5.1332414E-2,1E0,4E0,2.2413793E-1,1E0,2.1621622E-1,8.349536E-1,3.760523E-1,-5.0105494E-2,-5.226746E-2,-1.5523605E-2,4E1,-4.8654374E-2,2.141869E-1,-4.1739415E-2],"split_indices":[13,26,0,40,0,4,19,0,0,47,0,0,0,19,9,17,35,17,0,0,0,0,0,7,0,0,0],"split_type":[0,0,0,0,0,0,0,0,0,0,0,0,0,0,0,0,0,0,0,0,0,0,0,0,0,0,0],"sum_hessian":[7.3127386E2,7.214283E2,9.845556E0,7.064669E2,1.4961384E1,6.5193024E2,5.453666E1,9.266405E0,5.694978E0,2.1023158E2,4.4169867E2,8.9768305E0,4.5559826E1,1.8194974E2,2.8281841E1,2.712354E1,1.5482619E2,2.2586864E1,5.694978E0,3.7644773E0,2.3359064E1,1.5144781E2,3.378377E0,8.0115795E0,1.4575284E1,3.281852E0,4.7297277E0],"tree_param":{"num_deleted":"0","num_feature":"55","num_nodes":"27","size_leaf_vector":"1"}},{"base_weights":[6.8095373E-3,-8.153321E-2,8.862121E-1,1.0263243E0,-8.065237E-2,-7.818372E-2,1.0513994E0,-7.369585E-2,1.0645714E0,1.0707326E-1,-6.7125164E-2],"categories":[],"categories_nodes":[],"categories_segments":[],"categories_sizes":[],"default_left":[0,0,0,0,0,0,0,0,0,0,0],"id":8,"left_children":[1,-1,3,5,-1,-1,7,-1,9,-1,-1],"loss_changes":[2.651757E3,0E0,4.2116956E2,7.508069E1,0E0,0E0,3.8868164E1,0E0,1.791272E1,0E0,0E0],"parents":[2147483647,0,0,2,2,3,3,6,6,8,8],"right_children":[2,-1,4,6,-1,-1,8,-1,10,-1,-1],"split_conditions":[2E0,-8.153321E-2,4.01E2,1E0,-8.065237E-2,-7.818372E-2,1E0,-7.369585E-2,8E0,1.0707326E-1,-6.7125164E-2],"split_indices":[12,0,44,19,0,0,42,0,26,0,0],"split_type":[0,0,0,0,0,0,0,0,0,0,0],"sum_hessian":[3.6657378E3,1.8945282E3,1.7712096E3,1.6362277E3,1.3498203E2,2.191305E1,1.6143146E3,1.1345942E1,1.6029686E3,1.5977383E3,5.230318E0],"tree_param":{"num_deleted":"0","num_feature":"55","num_nodes":"11","size_leaf_vector":"1"}},{"base_weights":[-7.5889872E-3,1.9592994E0,-5.6673642E-2,-3.6397988E-1,2.657224E-1,2.2174238E-1,-5.5856537E-2],"categories":[],"categories_nodes":[],"categories_segments":[],"categories_sizes":[],"default_left":[0,0,0,0,0,0,0],"id":9,"left_children":[1,3,-1,5,-1,-1,-1],"loss_changes":[1.8282452E3,5.978368E2,0E0,4.4194866E1,0E0,0E0,0E0],"parents":[2147483647,0,0,1,1,3,3],"right_children":[2,4,-1,6,-1,-1,-1],"split_conditions":[1E0,1E0,-5.6673642E-2,1.8E1,2.657224E-1,2.2174238E-1,-5.5856537E-2],"split_indices":[15,13,0,3,0,0,0],"split_type":[0,0,0,0,0,0,0],"sum_hessian":[1.6604897E3,3.669617E2,1.293528E3,8.4848785E1,2.8211288E2,5.1828403E0,7.966595E1],"tree_param":{"num_deleted":"0","num_feature":"55","num_nodes":"7","size_leaf_vector":"1"}},{"base_weights":[3.4260396E-3,-5.0995666E-1,1.1470191E0,-5.617818E-1,1.3749771E-1,1.971296E0,-5.6396198E-2,-5.6453466E-2,-1.9187704E-1,-5.5783607E-2,2.3958424E-1,2.223543E0,-5.4775544E-2,-4.663227E-2,2.8266838E-2,2.4618366E0,-5.4181833E-2,-4.7751527E-2,2.529164E0,-4.5388963E-2,2.5826259E0,2.621395E-1,1.2985269E0,-4.232536E-2,2.3037305E-1],"categories":[],"categories_nodes":[],"categories_segments":[],"categories_sizes":[],"default_left":[0,0,0,0,0,0,0,0,0,0,0,0,0,0,0,0,0,0,0,0,0,0,0,0,0],"id":10,"left_children":[1,3,5,7,9,11,-1,-1,13,-1,-1,15,-1,-1,-1,17,-1,-1,19,-1,21,-1,23,-1,-1],"loss_changes":[9.78324E2,3.8705322E1,7.294261E2,9.0057373E-1,1.3638596E2,2.2296472E2,0E0,0E0,1.4070901E0,0E0,0E0,2.1055371E2,0E0,0E0,0E0,5.9249756E1,0E0,0E0,4.6980225E1,0E0,1.0195679E1,0E0,1.8979155E1,0E0,0E0],"parents":[2147483647,0,0,1,1,2,2,3,3,4,4,5,5,8,8,11,11,15,15,18,18,20,20,22,22],"right_children":[2,4,6,8,10,12,-1,-1,14,-1,-1,16,-1,-1,-1,18,-1,-1,20,-1,22,-1,24,-1,-1],"split_conditions":[1.8E1,5.2E1,3E0,5.1E1,3.787144E0,2.0201976E0,-5.6396198E-2,-5.6453466E-2,3.5464394E0,-5.5783607E-2,2.3958424E-1,5.9E1,-5.4775544E-2,-4.663227E-2,2.8266838E-2,3.251629E0,-5.4181833E-2,-4.7751527E-2,2E0,-4.5388963E-2,1.3E1,2.621395E-1,5.6E1,-4.232536E-2,2.3037305E-1],"split_indices":[4,0,8,0,16,46,0,0,16,0,0,3,0,0,0,16,0,0,8,0,5,0,3,0,0],"split_type":[0,0,0,0,0,0,0,0,0,0,0,0,0,0,0,0,0,0,0,0,0,0,0,0,0],"sum_hessian":[1.6642594E3,1.148942E3,5.153173E2,1.0640569E3,8.488512E1,3.477113E2,1.6760599E2,1.055406E3,8.650949E0,6.544394E1,1.9441174E1,3.1620493E2,3.1506403E1,5.6255546E0,3.0253932E0,2.912533E2,2.4951618E1,6.3522587E0,2.8490103E2,4.851242E0,2.800498E2,2.7075592E2,9.293889E0,3.6025882E0,5.6913004E0],"tree_param":{"num_deleted":"0","num_feature":"55","num_nodes":"25","size_leaf_vector":"1"}},{"base_weights":[1.0647921E-2,-5.3311266E-2,2.1363082E0,8.7937903E-1,3.695367E-1,5.3946644E-2,2.7605205E0,-2.3961994E-1,4.3647942E-1,3.641905E-1,-4.5526333E-2,2.2105871E-1,-4.3814653E-1,-5.245915E-2,2.8984052E-1,1.0483692E-1,-4.000019E-2],"categories":[],"categories_nodes":[],"categories_segments":[],"categories_sizes":[],"default_left":[0,0,0,0,0,0,0,0,0,0,0,0,0,0,0,0,0],"id":11,"left_children":[1,-1,3,5,-1,7,9,11,-1,-1,-1,-1,13,-1,15,-1,-1],"loss_changes":[1.1037124E3,0E0,3.7747858E2,1.688862E2,0E0,9.870667E1,9.607178E1,3.6238182E1,0E0,0E0,0E0,0E0,4.4725523E0,0E0,4.549362E0,0E0,0E0],"parents":[2147483647,0,0,2,2,3,3,5,5,6,6,7,7,12,12,14,14],"right_children":[2,-1,4,6,-1,8,10,12,-1,-1,-1,-1,14,-1,16,-1,-1],"split_conditions":[7E0,-5.3311266E-2,3.020233E0,1.3235295E-1,3.695367E-1,1E0,1E0,2.0930232E-1,4.3647942E-1,3.641905E-1,-4.5526333E-2,2.2105871E-1,1.0169491E-1,-5.245915E-2,5E1,1.0483692E-1,-4.000019E-2],"split_indices":[9,0,46,18,0,30,10,17,0,0,0,0,18,0,3,0,0],"split_type":[0,0,0,0,0,0,0,0,0,0,0,0,0,0,0,0,0],"sum_hessian":[9.527683E2,7.592487E2,1.935196E2,1.0804266E2,8.547694E1,7.584446E1,3.2198208E1,7.187128E1,3.973181E0,2.5192122E1,7.006088E0,4.589476E0,6.72818E1,6.051294E1,6.7688613E0,3.0454354E0,3.7234256E0],"tree_param":{"num_deleted":"0","num_feature":"55","num_nodes":"17","size_leaf_vector":"1"}},{"base_weights":[-2.4301608E-3,-3.3131114E-1,3.5812157E-1,-4.6281174E-1,3.053987E0,-4.895924E-1,3.832315E-1,3.5446283E-1,-4.0860467E-2,-5.1182425E-1,2.2883604E-1,-5.259083E-1,3.748726E-1,-5.2827966E-1,-4.1052816E-3,-4.4014648E-2,1.0224266E0,-5.33092E-2,-3.915077E-1,5.2081537E-3,1.6208558E-1,1.385617E-2,-5.105241E-2],"categories":[],"categories_nodes":[],"categories_segments":[],"categories_sizes":[],"default_left":[0,0,0,0,0,0,0,0,0,0,0,0,0,0,0,0,0,0,0,0,0,0,0],"id":12,"left_children":[1,3,-1,5,7,9,-1,-1,-1,11,-1,13,15,17,-1,-1,19,-1,21,-1,-1,-1,-1],"loss_changes":[1.1304402E3,3.923647E2,0E0,9.894949E1,5.7762573E1,5.3024963E1,0E0,0E0,0E0,1.0660629E1,0E0,8.6891174E-1,7.6617527E0,2.3840332E-1,0E0,0E0,4.3487005E0,0E0,2.147884E0,0E0,0E0,0E0,0E0],"parents":[2147483647,0,0,1,1,3,3,4,4,5,5,9,9,11,11,12,12,13,13,16,16,18,18],"right_children":[2,4,-1,6,8,10,-1,-1,-1,12,-1,14,16,18,-1,-1,20,-1,22,-1,-1,-1,-1],"split_conditions":[1E1,7.9E1,3.5812157E-1,9E0,1E0,1E0,3.832315E-1,3.5446283E-1,-4.0860467E-2,1E0,2.2883604E-1,3.2E1,2.1E1,4E0,-4.1052816E-3,-4.4014648E-2,4.01E2,-5.33092E-2,8E0,5.2081537E-3,1.6208558E-1,1.385617E-2,-5.105241E-2],"split_indices":[8,0,0,9,24,11,0,0,0,27,0,5,33,8,0,0,44,0,8,0,0,0,0],"split_type":[0,0,0,0,0,0,0,0,0,0,0,0,0,0,0,0,0,0,0,0,0,0,0],"sum_hessian":[9.57413E2,8.777912E2,7.962185E1,8.458281E2,3.196304E1,8.4149066E2,4.3375063E0,2.8000607E1,3.962433E0,8.3565466E2,5.8359556E0,8.2310046E2,1.255424E1,8.188E2,4.300468E0,5.6318254E0,6.922415E0,7.874645E2,3.1335503E1,3.1190498E0,3.803365E0,5.561505E0,2.5773996E1],"tree_param":{"num_deleted":"0","num_feature":"55","num_nodes":"23","size_leaf_vector":"1"}},{"base_weights":[-1.5434837E-2,1.6466191E0,-5.2391168E-2,3.8003543E-1,-5.1812023E-2],"categories":[],"categories_nodes":[],"categories_segments":[],"categories_sizes":[],"default_left":[0,0,0,0,0],"id":13,"left_children":[1,3,-1,-1,-1],"loss_changes":[6.248739E2,8.098062E2,0E0,0E0,0E0],"parents":[2147483647,0,0,1,1],"right_children":[2,4,-1,-1,-1],"split_conditions":[1E0,2E0,-5.2391168E-2,3.8003543E-1,-5.1812023E-2],"split_indices":[42,2,0,0,0],"split_type":[0,0,0,0,0],"sum_hessian":[7.375064E2,1.7220064E2,5.653058E2,8.596413E1,8.623652E1],"tree_param":{"num_deleted":"0","num_feature":"55","num_nodes":"5","size_leaf_vector":"1"}},{"base_weights":[-1.093433E-2,3.075586E0,-2.922251E-1,-4.42507E-2,3.2854894E-1,3.2637796E-1,-3.683689E-1,-8.952273E-2,-5.4226227E-2,3.0190835E0,-5.4088663E-2,3.3118575E0,-4.273559E-2,2.0642972E0,3.4642416E-1,7.381285E-2,2.802821E-1],"categories":[],"categories_nodes":[],"categories_segments":[],"categories_sizes":[],"default_left":[0,0,0,0,0,0,0,0,0,0,0,0,0,0,0,0,0],"id":14,"left_children":[1,3,5,-1,-1,-1,7,9,-1,11,-1,13,-1,15,-1,-1,-1],"loss_changes":[1.02338916E3,7.4438965E1,2.9349664E2,0E0,0E0,0E0,5.1231094E1,5.7401166E2,0E0,5.4039795E1,0E0,1.4111938E0,0E0,5.182255E0,0E0,0E0,0E0],"parents":[2147483647,0,0,1,1,2,2,6,6,7,7,9,9,11,11,13,13],"right_children":[2,4,6,-1,-1,-1,8,10,-1,12,-1,14,-1,16,-1,-1,-1],"split_conditions":[2.7E1,2E0,1.1E1,-4.42507E-2,3.2854894E-1,3.2637796E-1,3E0,2E0,-5.4226227E-2,3E0,-5.4088663E-2,3E1,-4.273559E-2,4.1584644E-1,3.4642416E-1,7.381285E-2,2.802821E-1],"split_indices":[0,8,33,0,0,0,3,12,0,5,0,0,0,46,0,0,0],"split_type":[0,0,0,0,0,0,0,0,0,0,0,0,0,0,0,0,0],"sum_hessian":[1.1770205E3,9.744925E1,1.0795712E3,5.397622E0,9.205163E1,2.1726822E1,1.0578444E3,4.071116E2,6.507328E2,5.0867775E1,3.562438E2,4.694765E1,3.9201233E0,6.765098E0,4.0182552E1,3.1834466E0,3.5816514E0],"tree_param":{"num_deleted":"0","num_feature":"55","num_nodes":"17","size_leaf_vector":"1"}},{"base_weights":[-3.6502015E-3,-1.2621269E-1,3.915555E-1,-2.5409314E-1,3.0196338E0,-3.7183607E-1,8.828535E-1,3.9035928E-1,-4.2994283E-2,-5.951433E-2,-5.2363843E-2,-5.108692E-2,3.8969788E-1,-4.0443736E-1,1.6438264E0,-5.2039336E-2,1.5852338E-1,9.12641E-2,3.9627057E-1,-4.968273E-2,1.7935219E0,-4.785908E-2,9.087112E-1,3.0836254E-1,-3.7882835E-2,2.2693117E-1,-4.141012E-2],"categories":[],"categories_nodes":[],"categories_segments":[],"categories_sizes":[],"default_left":[0,0,0,0,0,0,0,0,0,0,0,0,0,0,0,0,0,0,0,0,0,0,0,0,0,0,0],"id":15,"left_children":[1,3,-1,5,7,9,11,-1,-1,13,-1,-1,-1,15,17,-1,19,21,-1,-1,23,-1,25,-1,-1,-1,-1],"loss_changes":[3.5133365E2,2.86117E2,0E0,9.1737495E1,8.673918E1,2.929995E1,2.725753E2,0E0,0E0,1.2044872E2,0E0,0E0,0E0,1.1253517E1,1.2350153E2,0E0,3.290044E1,1.0597579E1,0E0,0E0,2.6027803E1,0E0,1.793658E1,0E0,0E0,0E0,0E0],"parents":[2147483647,0,0,1,1,3,3,4,4,5,5,6,6,9,9,13,13,14,14,16,16,17,17,20,20,22,22],"right_children":[2,4,-1,6,8,10,12,-1,-1,14,-1,-1,-1,16,18,-1,20,22,-1,-1,24,-1,26,-1,-1,-1,-1],"split_conditions":[2E0,1.4E1,3.915555E-1,1E0,3.7E1,9E0,2E0,3.9035928E-1,-4.2994283E-2,4.01E2,-5.2363843E-2,-5.108692E-2,3.8969788E-1,2E0,4E0,-5.2039336E-2,2.7E1,2.7E1,3.9627057E-1,-4.968273E-2,2.01E2,-4.785908E-2,4.738236E-1,3.0836254E-1,-3.7882835E-2,2.2693117E-1,-4.141012E-2],"split_indices":[13,26,0,40,0,4,8,0,0,44,0,0,0,8,9,0,0,0,0,0,44,0,46,0,0,0,0],"split_type":[0,0,0,0,0,0,0,0,0,0,0,0,0,0,0,0,0,0,0,0,0,0,0,0,0,0,0],"sum_hessian":[7.301756E2,7.0899695E2,2.117864E1,6.822155E2,2.6781433E1,6.1888434E2,6.3331158E1,2.1236837E1,5.544596E0,2.0309097E2,4.157934E2,4.3851624E1,1.9479532E1,1.6957387E2,3.3517094E1,1.408214E2,2.875248E1,2.0724125E1,1.279297E1,2.097865E1,7.77383E0,1.2383555E1,8.340569E0,4.6430097E0,3.1308203E0,3.7961016E0,4.544467E0],"tree_param":{"num_deleted":"0","num_feature":"55","num_nodes":"27","size_leaf_vector":"1"}},{"base_weights":[4.2453064E-3,-7.7563964E-2,8.0087554E-1,9.442575E-1,-7.6865904E-2,-7.4532665E-2,9.6521604E-1,-7.080841E-2,9.786529E-1,9.847849E-2,-6.4810246E-2],"categories":[],"categories_nodes":[],"categories_segments":[],"categories_sizes":[],"default_left":[0,0,0,0,0,0,0,0,0,0,0],"id":16,"left_children":[1,-1,3,5,-1,-1,7,-1,9,-1,-1],"loss_changes":[2.2320505E3,0E0,4.007146E2,5.842798E1,0E0,0E0,3.6909668E1,0E0,1.6604736E1,0E0,0E0],"parents":[2147483647,0,0,2,2,3,3,6,6,8,8],"right_children":[2,-1,4,6,-1,-1,8,-1,10,-1,-1],"split_conditions":[2E0,-7.7563964E-2,4.01E2,1E0,-7.6865904E-2,-7.4532665E-2,1E0,-7.080841E-2,1.8E1,9.847849E-2,-6.4810246E-2],"split_indices":[12,0,44,19,0,0,15,0,4,0,0],"split_type":[0,0,0,0,0,0,0,0,0,0,0],"sum_hessian":[3.590661E3,1.81435E3,1.776311E3,1.628046E3,1.4826509E2,1.94658E1,1.6085802E3,1.2343119E1,1.596237E3,1.5906971E3,5.5399265E0],"tree_param":{"num_deleted":"0","num_feature":"55","num_nodes":"11","size_leaf_vector":"1"}},{"base_weights":[-1.193887E-3,1.5953331E0,-5.6161102E-2,-5.535866E-2,2.0492458E-1],"categories":[],"categories_nodes":[],"categories_segments":[],"categories_sizes":[],"default_left":[0,0,0,0,0],"id":17,"left_children":[1,3,-1,-1,-1],"loss_changes":[1.4697285E3,4.1757605E2,0E0,0E0,0E0],"parents":[2147483647,0,0,1,1],"right_children":[2,4,-1,-1,-1],"split_conditions":[1E0,2E0,-5.6161102E-2,-5.535866E-2,2.0492458E-1],"split_indices":[15,2,0,0,0],"split_type":[0,0,0,0,0],"sum_hessian":[1.640781E3,4.257815E2,1.2149995E3,7.417609E1,3.5160538E2],"tree_param":{"num_deleted":"0","num_feature":"55","num_nodes":"5","size_leaf_vector":"1"}},{"base_weights":[-3.993052E-3,-5.617524E-2,1.8677751E0,-5.3912062E-2,2.0431488E0,9.7365685E-2,2.0590512E-1],"categories":[],"categories_nodes":[],"categories_segments":[],"categories_sizes":[],"default_left":[0,0,0,0,0,0,0],"id":18,"left_children":[1,-1,3,-1,5,-1,-1],"loss_changes":[1.738479E3,0E0,1.6261511E2,0E0,3.7561035E0,0E0,0E0],"parents":[2147483647,0,0,2,2,4,4],"right_children":[2,-1,4,-1,6,-1,-1],"split_conditions":[1E0,-5.617524E-2,2E0,-5.3912062E-2,2.3E1,9.7365685E-2,2.0590512E-1],"split_indices":[24,0,5,0,7,0,0],"split_type":[0,0,0,0,0,0,0],"sum_hessian":[1.663336E3,1.2820557E3,3.812804E2,2.571491E1,3.5556546E2,6.2132916E0,3.4935217E2],"tree_param":{"num_deleted":"0","num_feature":"55","num_nodes":"7","size_leaf_vector":"1"}},{"base_weights":[2.5962405E-3,-3.5088584E-1,1.7693816E0,-4.3529204E-1,2.690653E-1,-5.0845306E-2,2.2343955E0,-4.8131695E-1,2.0673647E0,2.522435E-1,-4.853935E-2,-5.1365215E-1,-1.17828436E-1,7.673915E-2,2.3481143E-1,-5.275783E-2,-2.8897876E-1,-2.8912207E-1,2.0764104E-1,1.943264E-1,-5.168538E-2,-4.582959E-1,3.9865792E-1,-5.1911063E-2,3.0516976E-2,1.8408221E-1,-4.582003E-2],"categories":[],"categories_nodes":[],"categories_segments":[],"categories_sizes":[],"default_left":[0,0,0,0,0,0,0,0,0,0,0,0,0,0,0,0,0,0,0,0,0,0,0,0,0,0,0],"id":19,"left_children":[1,3,5,7,-1,-1,9,11,13,-1,-1,15,17,-1,-1,-1,19,21,-1,-1,-1,23,25,-1,-1,-1,-1],"loss_changes":[5.8994464E2,2.0296545E2,1.6812936E2,8.913194E1,0E0,0E0,1.0406543E2,8.733337E0,2.9932709E0,0E0,0E0,1.9293518E0,2.4141962E1,0E0,0E0,0E0,2.272843E1,7.107078E0,0E0,0E0,0E0,2.4225435E0,1.600357E1,0E0,0E0,0E0,0E0],"parents":[2147483647,0,0,1,1,2,2,3,3,6,6,7,7,8,8,11,11,12,12,16,16,17,17,21,21,22,22],"right_children":[2,4,6,8,-1,-1,10,12,14,-1,-1,16,18,-1,-1,-1,20,22,-1,-1,-1,24,26,-1,-1,-1,-1],"split_conditions":[1.369863E-1,1E0,3.4E1,4.9683094E0,2.690653E-1,-5.0845306E-2,1E0,8E0,6.6E1,2.522435E-1,-4.853935E-2,6E0,3.020233E0,7.673915E-2,2.3481143E-1,-5.275783E-2,2.3853211E-1,1.7398927E0,2.0764104E-1,1.943264E-1,-5.168538E-2,1E0,6E0,-5.1911063E-2,3.0516976E-2,1.8408221E-1,-4.582003E-2],"split_indices":[18,30,0,46,0,0,10,5,0,0,0,8,46,0,0,0,17,46,0,0,0,29,10,0,0,0,0],"split_type":[0,0,0,0,0,0,0,0,0,0,0,0,0,0,0,0,0,0,0,0,0,0,0,0,0,0,0],"sum_hessian":[9.4240515E2,7.859119E2,1.564932E2,7.6555664E2,2.0355316E1,2.6479065E1,1.3001413E2,7.525643E2,1.299234E1,1.1766241E2,1.2351724E1,6.904546E2,6.2109695E1,3.033887E0,9.958453E0,6.484668E2,4.198776E1,5.8459827E1,3.6498673E0,3.1513016E0,3.883646E1,4.730358E1,1.1156247E1,4.4231327E1,3.072253E0,3.7734985E0,7.382748E0],"tree_param":{"num_deleted":"0","num_feature":"55","num_nodes":"27","size_leaf_vector":"1"}},{"base_weights":[-8.595359E-3,-3.4125182E-1,2.3952577E0,-4.749379E-1,1.3366061E0,2.5101364E-1,-4.1373435E-2,-4.9994087E-1,2.1838145E-1,2.537831E0,-5.0755985E-2,-5.163043E-1,3.4409934E-1,-1.5247728E-2,2.786231E-1,-5.2278423E-1,-1.9468619E-2,-4.8160136E-2,2.4470475E-1,-5.2533794E-2,-2.4781983E-1,7.780688E-2,-4.5116737E-2,-4.2549726E-2,4.196647E-3],"categories":[],"categories_nodes":[],"categories_segments":[],"categories_sizes":[],"default_left":[0,0,0,0,0,0,0,0,0,0,0,0,0,0,0,0,0,0,0,0,0,0,0,0,0],"id":20,"left_children":[1,3,5,7,9,-1,-1,11,-1,13,-1,15,17,-1,-1,19,21,-1,-1,-1,23,-1,-1,-1,-1],"loss_changes":[7.5484015E2,1.8659827E2,3.827545E1,5.2045883E1,1.3754633E2,0E0,0E0,1.0729019E1,0E0,2.5675827E1,0E0,2.3460999E0,2.7402697E1,0E0,0E0,3.112793E-1,4.0631933E0,0E0,0E0,0E0,5.222853E-1,0E0,0E0,0E0,0E0],"parents":[2147483647,0,0,1,1,2,2,3,3,4,4,7,7,9,9,11,11,12,12,15,15,16,16,20,20],"right_children":[2,4,6,8,10,-1,-1,12,-1,14,-1,16,18,-1,-1,20,22,-1,-1,-1,24,-1,-1,-1,-1],"split_conditions":[3.4E1,2E0,3.020233E0,4E0,1E0,2.5101364E-1,-4.1373435E-2,1E0,2.1838145E-1,5E1,-5.0755985E-2,1E0,3E0,-1.5247728E-2,2.786231E-1,3.529412E-1,9.090909E-2,-4.8160136E-2,2.4470475E-1,-5.2533794E-2,3.8E1,7.780688E-2,-4.5116737E-2,-4.2549726E-2,4.196647E-3],"split_indices":[4,10,46,28,24,0,0,27,0,0,0,29,3,0,0,17,18,0,0,0,7,0,0,0,0],"split_type":[0,0,0,0,0,0,0,0,0,0,0,0,0,0,0,0,0,0,0,0,0,0,0,0,0],"sum_hessian":[9.4218933E2,8.284449E2,1.1374445E2,7.680276E2,6.041731E1,1.0941186E2,4.3325987E0,7.61714E2,6.313608E0,3.639135E1,2.4025963E1,7.477246E2,1.3989384E1,3.074662E0,3.3316685E1,7.378478E2,9.876821E0,1.0564699E1,3.424684E0,7.297957E2,8.052032E0,3.1055393E0,6.7712812E0,4.9151573E0,3.1368754E0],"tree_param":{"num_deleted":"0","num_feature":"55","num_nodes":"25","size_leaf_vector":"1"}},{"base_weights":[-1.3188289E-2,1.3137819E0,-5.22187E-2,2.6194558E-1,-5.1653218E-2],"categories":[],"categories_nodes":[],"categories_segments":[],"categories_sizes":[],"default_left":[0,0,0,0,0],"id":21,"left_children":[1,3,-1,-1,-1],"loss_changes":[4.9520444E2,4.8727377E2,0E0,0E0,0E0],"parents":[2147483647,0,0,1,1],"right_children":[2,4,-1,-1,-1],"split_conditions":[1E0,2E0,-5.22187E-2,2.6194558E-1,-5.1653218E-2],"split_indices":[15,2,0,0,0],"split_type":[0,0,0,0,0],"sum_hessian":[7.3127496E2,2.0224374E2,5.290312E2,1.1781947E2,8.442426E1],"tree_param":{"num_deleted":"0","num_feature":"55","num_nodes":"5","size_leaf_vector":"1"}},{"base_weights":[3.031729E-3,2.26793E0,-2.701737E-1,-4.2945534E-2,2.3800345E-1,2.3851605E-1,-3.4756985E-1,-4.6691835E-2,-5.394104E-2,2.2003684E0,-5.373593E-2,-4.6324205E-2,2.4292783E-1],"categories":[],"categories_nodes":[],"categories_segments":[],"categories_sizes":[],"default_left":[0,0,0,0,0,0,0,0,0,0,0,0,0],"id":22,"left_children":[1,3,5,-1,-1,-1,7,9,-1,11,-1,-1,-1],"loss_changes":[7.1762933E2,3.8967773E1,2.1324657E2,0E0,0E0,0E0,5.799453E1,4.343902E2,0E0,4.4372314E1,0E0,0E0,0E0],"parents":[2147483647,0,0,1,1,2,2,6,6,7,7,9,9],"right_children":[2,4,6,-1,-1,-1,8,10,-1,12,-1,-1,-1],"split_conditions":[2.7E1,2E0,1.1E1,-4.2945534E-2,2.3800345E-1,2.3851605E-1,3E0,2E0,-5.394104E-2,6E0,-5.373593E-2,-4.6324205E-2,2.4292783E-1],"split_indices":[0,8,33,0,0,0,3,12,0,1,0,0,0],"split_type":[0,0,0,0,0,0,0,0,0,0,0,0,0],"sum_hessian":[1.1574309E3,1.2384115E2,1.0335898E3,4.792963E0,1.1904819E2,2.8392159E1,1.00519763E3,3.9206195E2,6.131357E2,6.9606026E1,3.2245593E2,5.392934E0,6.421309E1],"tree_param":{"num_deleted":"0","num_feature":"55","num_nodes":"13","size_leaf_vector":"1"}},{"base_weights":[5.689991E-4,5.9663314E-1,-5.2208602E-2,-5.193157E-2,1.6567434E0,4.932645E-1,2.4379435E0,1.6898267E-1,2.2536273E-1,-4.748206E-2,2.8203422E-1,-1.202718E-1,2.4342644E-1,1.1761062E0,-5.0997157E-2,2.437095E0,-4.2910267E-2,4.4703922E-1,-3.8662653E-2],"categories":[],"categories_nodes":[],"categories_segments":[],"categories_sizes":[],"default_left":[0,0,0,0,0,0,0,0,0,0,0,0,0,0,0,0,0,0,0],"id":23,"left_children":[1,3,-1,-1,5,7,9,11,-1,-1,-1,13,-1,15,-1,17,-1,-1,-1],"loss_changes":[2.2754765E2,4.0476135E2,0E0,0E0,1.5785617E2,4.03265E1,1.1806775E2,4.0955433E1,0E0,0E0,0E0,2.8637913E1,0E0,2.776508E1,0E0,4.532305E1,0E0,0E0,0E0],"parents":[2147483647,0,0,1,1,4,4,5,5,6,6,7,7,11,11,13,13,15,15],"right_children":[2,4,-1,-1,6,8,10,12,-1,-1,-1,14,-1,16,-1,18,-1,-1,-1],"split_conditions":[4.9976665E-1,2E0,-5.2208602E-2,-5.193157E-2,2E0,7.1E1,1.4545454E-1,2E0,2.2536273E-1,-4.748206E-2,2.8203422E-1,2.1621622E-1,2.4342644E-1,3.2E1,-5.0997157E-2,9E0,-4.2910267E-2,4.4703922E-1,-3.8662653E-2],"split_indices":[46,8,0,0,12,3,17,13,0,0,0,17,0,0,0,1,0,0,0],"split_type":[0,0,0,0,0,0,0,0,0,0,0,0,0,0,0,0,0,0,0],"sum_hessian":[7.28382E2,3.4031647E2,3.8806558E2,1.6599446E2,1.7432199E2,7.073395E1,1.0358805E2,6.070423E1,1.0029714E1,1.1962836E1,9.162521E1,5.463113E1,6.0731025E0,1.2101061E1,4.2530067E1,6.521827E0,5.579234E0,3.4731498E0,3.0486777E0],"tree_param":{"num_deleted":"0","num_feature":"55","num_nodes":"19","size_leaf_vector":"1"}},{"base_weights":[1.5284466E-2,-7.42702E-2,7.5458544E-1,8.8007873E-1,-7.356989E-2,-7.170506E-2,9.009416E-1,-6.698499E-2,9.1176635E-1,9.1593854E-2,-5.820433E-2],"categories":[],"categories_nodes":[],"categories_segments":[],"categories_sizes":[],"default_left":[0,0,0,0,0,0,0,0,0,0,0],"id":24,"left_children":[1,-1,3,5,-1,-1,7,-1,9,-1,-1],"loss_changes":[1.9612205E3,0E0,3.3202417E2,5.5133667E1,0E0,0E0,2.8080688E1,0E0,1.0560791E1,0E0,0E0],"parents":[2147483647,0,0,2,2,3,3,6,6,8,8],"right_children":[2,-1,4,6,-1,-1,8,-1,10,-1,-1],"split_conditions":[2E0,-7.42702E-2,4.01E2,1E0,-7.356989E-2,-7.170506E-2,1E0,-6.698499E-2,1.8E1,9.1593854E-2,-5.820433E-2],"split_indices":[12,0,44,19,0,0,42,0,4,0,0],"split_type":[0,0,0,0,0,0,0,0,0,0,0],"sum_hessian":[3.4978015E3,1.7270062E3,1.7707953E3,1.6337018E3,1.3709357E2,2.0573341E1,1.6131284E3,1.0560499E1,1.6025679E3,1.5985569E3,4.0110292E0],"tree_param":{"num_deleted":"0","num_feature":"55","num_nodes":"11","size_leaf_vector":"1"}},{"base_weights":[-2.8459164E-3,1.3370976E0,-5.5684168E-2,-5.4933894E-2,1.6844699E-1],"categories":[],"categories_nodes":[],"categories_segments":[],"categories_sizes":[],"default_left":[0,0,0,0,0],"id":25,"left_children":[1,3,-1,-1,-1],"loss_changes":[1.1970707E3,3.1012878E2,0E0,0E0,0E0],"parents":[2147483647,0,0,1,1],"right_children":[2,4,-1,-1,-1],"split_conditions":[1E0,2E0,-5.5684168E-2,-5.4933894E-2,1.6844699E-1],"split_indices":[15,2,0,0,0],"split_type":[0,0,0,0,0],"sum_hessian":[1.6107029E3,4.7068008E2,1.1400228E3,7.3058716E1,3.9762137E2],"tree_param":{"num_deleted":"0","num_feature":"55","num_nodes":"5","size_leaf_vector":"1"}},{"base_weights":[-2.5700143E-4,-5.56978E-2,1.5528334E0,-5.3320605E-2,1.6788845E0,7.885491E-2,1.6893505E-1],"categories":[],"categories_nodes":[],"categories_segments":[],"categories_sizes":[],"default_left":[0,0,0,0,0,0,0],"id":26,"left_children":[1,-1,3,-1,5,-1,-1],"loss_changes":[1.401519E3,0E0,1.134729E2,0E0,2.1811523E0,0E0,0E0],"parents":[2147483647,0,0,2,2,4,4],"right_children":[2,-1,4,-1,6,-1,-1],"split_conditions":[1E0,-5.56978E-2,2E0,-5.3320605E-2,2.3E1,7.885491E-2,1.6893505E-1],"split_indices":[24,0,5,0,7,0,0],"split_type":[0,0,0,0,0,0,0],"sum_hessian":[1.6190465E3,1.1923444E3,4.2670212E2,2.408542E1,4.026167E2,5.6757755E0,3.9694092E2],"tree_param":{"num_deleted":"0","num_feature":"55","num_nodes":"7","size_leaf_vector":"1"}},{"base_weights":[-0E0,-5.2859094E-2,1.3920553E0,1.692646E0,-5.1498782E-2,1.8969122E0,-5.020326E-2,2.054148E-1,-4.838192E-2],"categories":[],"categories_nodes":[],"categories_segments":[],"categories_sizes":[],"default_left":[0,0,0,0,0,0,0,0,0],"id":27,"left_children":[1,-1,3,5,-1,7,-1,-1,-1],"loss_changes":[6.899855E2,0E0,1.489338E2,1.0116217E2,0E0,7.769006E1,0E0,0E0,0E0],"parents":[2147483647,0,0,2,2,3,3,5,5],"right_children":[2,-1,4,6,-1,8,-1,-1,-1],"split_conditions":[7E0,-5.2859094E-2,9E0,1E0,-5.1498782E-2,1E0,-5.020326E-2,2.054148E-1,-4.838192E-2],"split_indices":[9,0,9,24,0,27,0,0,0],"split_type":[0,0,0,0,0,0,0,0,0],"sum_hessian":[9.356074E2,6.785227E2,2.5708472E2,2.2222255E2,3.486216E1,2.0346648E2,1.8756073E1,1.9102911E2,1.2437358E1],"tree_param":{"num_deleted":"0","num_feature":"55","num_nodes":"9","size_leaf_vector":"1"}},{"base_weights":[-2.6695037E-3,-4.2691654E-1,1.5015253E0,-5.134109E-1,1.8153572E0,1.7608373E0,-5.052808E-2,-5.2857734E-2,2.960546E-1,1.9877686E-1,4.582349E-2,-4.8271533E-2,1.9128166E0,1.812064E-1,-4.649634E-2,2.0081568E0,-4.454515E-2,7.589789E-2,2.026658E-1],"categories":[],"categories_nodes":[],"categories_segments":[],"categories_sizes":[],"default_left":[0,0,0,0,0,0,0,0,0,0,0,0,0,0,0,0,0,0,0],"id":28,"left_children":[1,3,5,7,9,11,-1,-1,13,-1,-1,-1,15,-1,-1,17,-1,-1,-1],"loss_changes":[5.9173596E2,1.4111105E2,1.0716397E2,8.741562E0,5.1732483E0,6.2750244E1,0E0,0E0,1.6374872E1,0E0,0E0,0E0,3.919928E1,0E0,0E0,1.9573975E0,0E0,0E0,0E0],"parents":[2147483647,0,0,1,1,2,2,3,3,4,4,5,5,8,8,12,12,15,15],"right_children":[2,4,6,8,10,12,-1,-1,14,-1,-1,-1,16,-1,-1,18,-1,-1,-1],"split_conditions":[4E0,1.2E1,3.020233E0,6E0,3.7039819E0,9.1829586E-1,-5.052808E-2,-5.2857734E-2,1E0,1.9877686E-1,4.582349E-2,-4.8271533E-2,1E0,1.812064E-1,-4.649634E-2,1.9444445E-1,-4.454515E-2,7.589789E-2,2.026658E-1],"split_indices":[8,10,46,10,16,16,0,0,38,0,0,0,14,0,0,17,0,0,0],"split_type":[0,0,0,0,0,0,0,0,0,0,0,0,0,0,0,0,0,0,0],"sum_hessian":[9.2543146E2,7.224519E2,2.0297957E2,6.964042E2,2.604775E1,1.7990527E2,2.307429E1,6.84058E2,1.2346171E1,2.2633917E1,3.413833E0,1.1233891E1,1.6867139E2,3.7086124E0,8.637559E0,1.6230075E2,6.370628E0,3.0609155E0,1.5923984E2],"tree_param":{"num_deleted":"0","num_feature":"55","num_nodes":"19","size_leaf_vector":"1"}},{"base_weights":[-3.5589688E-2,1.0788232E0,-5.2052017E-2,-5.1472753E-2,2.0310657E-1],"categories":[],"categories_nodes":[],"categories_segments":[],"categories_sizes":[],"default_left":[0,0,0,0,0],"id":29,"left_children":[1,3,-1,-1,-1],"loss_changes":[3.8379868E2,3.2792566E2,0E0,0E0,0E0],"parents":[2147483647,0,0,1,1],"right_children":[2,4,-1,-1,-1],"split_conditions":[1E0,3.6E1,-5.2052017E-2,-5.1472753E-2,2.0310657E-1],"split_indices":[15,7,0,0,0],"split_type":[0,0,0,0,0],"sum_hessian":[7.082597E2,2.143147E2,4.9394498E2,8.029603E1,1.3401868E2],"tree_param":{"num_deleted":"0","num_feature":"55","num_nodes":"5","size_leaf_vector":"1"}},{"base_weights":[-1.1112356E-2,1.8024938E0,-2.7563983E-1,-4.3535557E-2,1.8902276E-1,1.902397E-1,-3.5490352E-1,-8.063732E-2,-5.3664487E-2,1.6946459E0,-5.341173E-2,-4.6241473E-2,1.8659132E0,1.0048654E0,1.9704844E-1,-4.641879E-2,1.878866E-1],"categories":[],"categories_nodes":[],"categories_segments":[],"categories_sizes":[],"default_left":[0,0,0,0,0,0,0,0,0,0,0,0,0,0,0,0,0],"id":30,"left_children":[1,3,5,-1,-1,-1,7,9,-1,11,-1,-1,13,15,-1,-1,-1],"loss_changes":[5.4902356E2,2.9567474E1,1.7298975E2,0E0,0E0,0E0,4.7987114E1,3.1148056E2,0E0,3.0084244E1,0E0,0E0,4.310608E0,1.3940485E1,0E0,0E0,0E0],"parents":[2147483647,0,0,1,1,2,2,6,6,7,7,9,9,12,12,13,13],"right_children":[2,4,6,-1,-1,-1,8,10,-1,12,-1,-1,14,16,-1,-1,-1],"split_conditions":[2.7E1,2E0,1.1E1,-4.3535557E-2,1.8902276E-1,1.902397E-1,3E0,2E0,-5.3664487E-2,6E0,-5.341173E-2,-4.6241473E-2,1.9444445E-1,9E0,1.9704844E-1,-4.641879E-2,1.878866E-1],"split_indices":[0,8,33,0,0,0,3,12,0,1,0,0,17,1,0,0,0],"split_type":[0,0,0,0,0,0,0,0,0,0,0,0,0,0,0,0,0],"sum_hessian":[1.1426809E3,1.4466469E2,9.9801624E2,5.2650657E0,1.3939963E2,3.419274E1,9.6382355E2,3.849256E2,5.788979E2,7.771794E1,3.0720767E2,5.5487857E0,7.216915E1,9.06802E0,6.3101135E1,3.514758E0,5.5532618E0],"tree_param":{"num_deleted":"0","num_feature":"55","num_nodes":"17","size_leaf_vector":"1"}},{"base_weights":[-1.056352E-3,5.436472E-1,-5.2046474E-2,-1.7150515E-1,1.5164366E0,7.429536E-1,-3.8899353E-1,4.6038777E-1,2.0729823E-1,-1.1939064E-1,2.2103941E-1,-5.045293E-2,1.8821073E-1,2.1949449E-1,1.9289708E-1,4.8671864E-2,-3.036876E-1,9.698124E-1,-4.9711104E-2,-4.800188E-2,9.846262E-3,-4.3086004E-2,1.4711034E0,-4.0019672E-2,2.0781432E-1],"categories":[],"categories_nodes":[],"categories_segments":[],"categories_sizes":[],"default_left":[0,0,0,0,0,0,0,0,0,0,0,0,0,0,0,0,0,0,0,0,0,0,0,0,0],"id":31,"left_children":[1,3,-1,5,7,9,11,13,-1,15,-1,-1,-1,17,-1,-1,19,21,-1,-1,-1,-1,23,-1,-1],"loss_changes":[2.0259155E2,2.434921E2,0E0,4.047255E1,8.590085E1,4.996396E1,4.387404E1,1.793414E1,0E0,2.9823759E0,0E0,0E0,0E0,2.5417194E1,0E0,0E0,1.5268291E0,1.6900381E1,0E0,0E0,0E0,0E0,2.0573025E1,0E0,0E0],"parents":[2147483647,0,0,1,1,3,3,4,4,5,5,6,6,7,7,9,9,13,13,16,16,17,17,22,22],"right_children":[2,4,-1,6,8,10,12,14,-1,16,-1,-1,-1,18,-1,-1,20,22,-1,-1,-1,-1,24,-1,-1],"split_conditions":[4.9976665E-1,4.01E2,-5.2046474E-2,1E0,2E0,2E0,1.2E1,2E0,2.0729823E-1,2.1621622E-1,2.2103941E-1,-5.045293E-2,1.8821073E-1,3.2E1,1.9289708E-1,4.8671864E-2,3.6E1,2.7E1,-4.9711104E-2,-4.800188E-2,9.846262E-3,-4.3086004E-2,1E0,-4.0019672E-2,2.0781432E-1],"split_indices":[46,44,0,19,12,12,26,13,0,17,0,0,0,0,0,0,7,0,0,0,0,0,15,0,0],"split_type":[0,0,0,0,0,0,0,0,0,0,0,0,0,0,0,0,0,0,0,0,0,0,0,0,0],"sum_hessian":[7.140727E2,3.484324E2,3.6564026E2,2.0122295E2,1.4720946E2,3.810972E1,1.6311322E2,5.149821E1,9.571124E1,2.4539518E1,1.3570201E1,1.559991E2,7.114129E0,4.5287247E1,6.2109632E0,5.2126827E0,1.9326836E1,2.2018793E1,2.3268454E1,1.3473937E1,5.852899E0,5.7878366E0,1.6230957E1,4.018689E0,1.2212268E1],"tree_param":{"num_deleted":"0","num_feature":"55","num_nodes":"25","size_leaf_vector":"1"}},{"base_weights":[-1.1258416E-3,-7.149324E-2,7.060568E-1,-7.100725E-2,7.8914773E-1,8.2030684E-1,-6.9248796E-2,-6.8566106E-2,8.49847E-1,8.566918E-2,-6.0830124E-2],"categories":[],"categories_nodes":[],"categories_segments":[],"categories_sizes":[],"default_left":[0,0,0,0,0,0,0,0,0,0,0],"id":32,"left_children":[1,-1,3,-1,5,7,-1,-1,9,-1,-1],"loss_changes":[1.7044628E3,0E0,2.0014221E2,0E0,7.4568115E1,7.044922E1,0E0,0E0,1.5920776E1,0E0,0E0],"parents":[2147483647,0,0,2,2,4,4,5,5,8,8],"right_children":[2,-1,4,-1,6,8,-1,-1,10,-1,-1],"split_conditions":[2E0,-7.149324E-2,1E0,-7.100725E-2,1.8E1,1E0,-6.9248796E-2,-6.8566106E-2,2.2E1,8.566918E-2,-6.0830124E-2],"split_indices":[12,0,19,0,4,15,0,0,2,0,0],"split_type":[0,0,0,0,0,0,0,0,0,0,0],"sum_hessian":[3.3745657E3,1.6794824E3,1.6950831E3,9.346134E1,1.6016218E3,1.5691365E3,3.248539E1,2.9694714E1,1.5394417E3,1.5327278E3,6.713885E0],"tree_param":{"num_deleted":"0","num_feature":"55","num_nodes":"11","size_leaf_vector":"1"}},{"base_weights":[3.9731367E-3,1.1741087E0,-5.523054E-2,-5.4467328E-2,1.440117E-1],"categories":[],"categories_nodes":[],"categories_segments":[],"categories_sizes":[],"default_left":[0,0,0,0,0],"id":33,"left_children":[1,3,-1,-1,-1],"loss_changes":[1.0260564E3,2.3310925E2,0E0,0E0,0E0],"parents":[2147483647,0,0,1,1],"right_children":[2,4,-1,-1,-1],"split_conditions":[1E0,2E0,-5.523054E-2,-5.4467328E-2,1.440117E-1],"split_indices":[42,2,0,0,0],"split_type":[0,0,0,0,0],"sum_hessian":[1.5742223E3,5.069399E2,1.0672823E3,6.7751E1,4.3918893E2],"tree_param":{"num_deleted":"0","num_feature":"55","num_nodes":"5","size_leaf_vector":"1"}},{"base_weights":[4.581024E-3,-5.524829E-2,1.3403575E0,-5.2648604E-2,1.4339895E0,1.4401561E-1,5.1749673E-2],"categories":[],"categories_nodes":[],"categories_segments":[],"categories_sizes":[],"default_left":[0,0,0,0,0,0,0],"id":34,"left_children":[1,-1,3,-1,5,-1,-1],"loss_changes":[1.1703342E3,0E0,8.175787E1,0E0,1.5518799E0,0E0,0E0],"parents":[2147483647,0,0,2,2,4,4],"right_children":[2,-1,4,-1,6,-1,-1],"split_conditions":[1E0,-5.524829E-2,2E0,-5.2648604E-2,1.9859009E0,1.4401561E-1,5.1749673E-2],"split_indices":[24,0,5,0,46,0,0],"split_type":[0,0,0,0,0,0,0],"sum_hessian":[1.5706901E3,1.1087961E3,4.6189392E2,2.1788183E1,4.4010574E2,4.3648837E2,3.6173766E0],"tree_param":{"num_deleted":"0","num_feature":"55","num_nodes":"7","size_leaf_vector":"1"}},{"base_weights":[-1.1081255E-2,-4.195168E-1,1.0254369E0,-4.743907E-1,1.5646449E-1,1.362996E0,-5.142459E-2,-5.0602573E-1,-2.0113954E-1,1.6717753E-1,-5.119899E-2,-5.1359624E-1,-3.680643E-1,-5.180446E-2,9.8244333E-1,-5.1873546E-2,-1.6783883E-1,7.752582E-2,-5.0874986E-2,1.600787E-1,-4.103018E-2,2.4374068E-2,-4.3026343E-2],"categories":[],"categories_nodes":[],"categories_segments":[],"categories_sizes":[],"default_left":[0,0,0,0,0,0,0,0,0,0,0,0,0,0,0,0,0,0,0,0,0,0,0],"id":35,"left_children":[1,3,5,7,-1,9,-1,11,13,-1,-1,15,17,-1,19,-1,21,-1,-1,-1,-1,-1,-1],"loss_changes":[3.865769E2,7.196821E1,1.3492102E2,5.3457184E0,0E0,1.2371298E2,0E0,3.1929016E-1,2.6052324E1,0E0,0E0,8.006592E-1,5.824821E0,0E0,1.3424813E1,0E0,1.1653731E0,0E0,0E0,0E0,0E0,0E0,0E0],"parents":[2147483647,0,0,1,1,2,2,3,3,5,5,7,7,8,8,11,11,12,12,14,14,16,16],"right_children":[2,4,6,8,-1,10,-1,12,14,-1,-1,16,18,-1,20,-1,22,-1,-1,-1,-1,-1,-1],"split_conditions":[8E0,5.3021035E0,1E0,2.3605492E0,1.5646449E-1,1E0,-5.142459E-2,6E0,2E0,1.6717753E-1,-5.119899E-2,3.4234235E-1,2.5925925E-1,-5.180446E-2,8E0,-5.1873546E-2,3.2691228E0,7.752582E-2,-5.0874986E-2,1.600787E-1,-4.103018E-2,2.4374068E-2,-4.3026343E-2],"split_indices":[5,46,38,46,0,10,0,8,8,0,0,17,17,0,8,0,16,0,0,0,0,0,0],"split_type":[0,0,0,0,0,0,0,0,0,0,0,0,0,0,0,0,0,0,0,0,0,0,0],"sum_hessian":[9.11263E2,6.5417847E2,2.5708447E2,6.373629E2,1.6815575E1,2.1100385E2,4.608064E1,5.7013855E2,6.722434E1,1.8130724E2,2.9696606E1,5.37212E2,3.292662E1,5.3536667E1,1.3687678E1,5.28566E2,8.645975E0,3.0355935E0,2.989103E1,9.425444E0,4.2622347E0,3.2456784E0,5.4002967E0],"tree_param":{"num_deleted":"0","num_feature":"55","num_nodes":"23","size_leaf_vector":"1"}},{"base_weights":[7.7074403E-3,-4.1748452E-1,1.2660894E0,-5.019204E-1,1.3456696E0,2.913623E-1,1.5260258E0,-5.0895256E-1,4.3364663E-2,1.642891E-1,-4.137243E-2,-1.5813564E-1,1.0785116E0,1.5639291E0,-3.8602788E-2,-5.145642E-1,1.0066977E-2,1.4403497E-1,-4.8931982E-2,1.7406683E-1,-4.352296E-2,1.6571483E-1,1.1466199E0,-5.1742536E-1,1.5526479E-3,-4.7930107E-2,1.2315935E-1,-2.7317026E-1,1.5973216E-1,-5.202595E-2,-2.3039281E-1,4.344634E-5,-4.330631E-2,-4.0931247E-2,3.0465021E-3],"categories":[],"categories_nodes":[],"categories_segments":[],"categories_sizes":[],"default_left":[0,0,0,0,0,0,0,0,0,0,0,0,0,0,0,0,0,0,0,0,0,0,0,0,0,0,0,0,0,0,0,0,0,0,0],"id":36,"left_children":[1,3,5,7,9,11,13,15,-1,-1,-1,17,19,21,-1,23,-1,25,-1,-1,-1,-1,27,29,-1,-1,-1,31,-1,-1,33,-1,-1,-1,-1],"loss_changes":[4.8922528E2,1.0231064E2,5.7885986E1,4.523163E0,1.7245083E1,1.7931435E1,1.3911804E1,2.311737E0,0E0,0E0,0E0,3.3651395E0,1.929092E1,4.771698E0,0E0,1.0333405E0,0E0,1.2630349E1,0E0,0E0,0E0,0E0,2.365244E1,3.2543945E-1,0E0,0E0,0E0,4.5872813E-1,0E0,0E0,4.421353E-1,0E0,0E0,0E0,0E0],"parents":[2147483647,0,0,1,1,2,2,3,3,4,4,5,5,6,6,7,7,11,11,12,12,13,13,15,15,17,17,22,22,23,23,27,27,30,30],"right_children":[2,4,6,8,10,12,14,16,-1,-1,-1,18,20,22,-1,24,-1,26,-1,-1,-1,-1,28,30,-1,-1,-1,32,-1,-1,34,-1,-1,-1,-1],"split_conditions":[4E0,7.9E1,2.3E1,1E0,1E0,4.4E1,5.02E2,7.7E1,4.3364663E-2,1.642891E-1,-4.137243E-2,1.9354838E-1,6.1E1,1.3235295E-1,-3.8602788E-2,1E0,1.0066977E-2,3E0,-4.8931982E-2,1.7406683E-1,-4.352296E-2,1.6571483E-1,3.3E1,7.4E1,1.5526479E-3,-4.7930107E-2,1.2315935E-1,3.6069367E0,1.5973216E-1,-5.202595E-2,6.5E1,4.344634E-5,-4.330631E-2,-4.0931247E-2,3.0465021E-3],"split_indices":[8,0,4,11,24,7,44,0,0,0,0,18,7,18,0,29,0,3,0,0,0,0,3,0,0,0,0,16,0,0,33,0,0,0,0],"split_type":[0,0,0,0,0,0,0,0,0,0,0,0,0,0,0,0,0,0,0,0,0,0,0,0,0,0,0,0,0,0,0,0,0,0,0],"sum_hessian":[9.122012E2,6.822619E2,2.2993922E2,6.518189E2,3.0442991E1,4.8937103E1,1.8100212E2,6.475148E2,4.3041325E0,2.6148651E1,4.294341E0,3.1577171E1,1.7359934E1,1.7771361E2,3.2885108E0,6.419258E2,5.5890117E0,1.664945E1,1.4927721E1,1.2018725E1,5.341209E0,1.4263983E2,3.5073776E1,6.38691E2,3.234825E0,1.088057E1,5.7688794E0,8.492602E0,2.6581173E1,6.3129675E2,7.394238E0,3.2696023E0,5.223E0,4.2757764E0,3.1184616E0],"tree_param":{"num_deleted":"0","num_feature":"55","num_nodes":"35","size_leaf_vector":"1"}},{"base_weights":[-1.4207942E-2,9.7236633E-1,-5.1891245E-2,1.6758427E-1,-5.1285733E-2],"categories":[],"categories_nodes":[],"categories_segments":[],"categories_sizes":[],"default_left":[0,0,0,0,0],"id":37,"left_children":[1,3,-1,-1,-1],"loss_changes":[3.4795032E2,2.4804156E2,0E0,0E0,0E0],"parents":[2147483647,0,0,1,1],"right_children":[2,4,-1,-1,-1],"split_conditions":[1E0,2E0,-5.1891245E-2,1.6758427E-1,-5.1285733E-2],"split_indices":[15,2,0,0,0],"split_type":[0,0,0,0,0],"sum_hessian":[6.9687354E2,2.3546739E2,4.6140613E2,1.5974374E2,7.572365E1],"tree_param":{"num_deleted":"0","num_feature":"55","num_nodes":"5","size_leaf_vector":"1"}},{"base_weights":[-1.0934011E-2,1.512203E0,-2.6152152E-1,-4.293562E-2,1.5805972E-1,9.913367E-2,-5.3396847E-2,1.5217904E0,-5.3102743E-2,-4.5661326E-2,1.6126315E-1],"categories":[],"categories_nodes":[],"categories_segments":[],"categories_sizes":[],"default_left":[0,0,0,0,0,0,0,0,0,0,0],"id":38,"left_children":[1,3,5,-1,-1,7,-1,9,-1,-1,-1],"loss_changes":[4.21462E2,2.1508453E1,9.32983E1,0E0,0E0,3.6746216E2,0E0,2.3464417E1,0E0,0E0,0E0],"parents":[2147483647,0,0,1,1,2,2,5,5,7,7],"right_children":[2,4,6,-1,-1,8,-1,10,-1,-1,-1],"split_conditions":[2.7E1,2E0,3E0,-4.293562E-2,1.5805972E-1,2E0,-5.3396847E-2,6E0,-5.3102743E-2,-4.5661326E-2,1.6126315E-1],"split_indices":[0,8,3,0,0,12,0,1,0,0,0],"split_type":[0,0,0,0,0,0,0,0,0,0,0],"sum_hessian":[1.102523E3,1.5499413E2,9.475288E2,5.044763E0,1.4994936E2,4.0787204E2,5.396568E2,1.24820366E2,2.8305167E2,5.2545934E0,1.1956577E2],"tree_param":{"num_deleted":"0","num_feature":"55","num_nodes":"11","size_leaf_vector":"1"}},{"base_weights":[1.3906641E-3,4.9767143E-1,-5.1885266E-2,-5.154062E-2,1.1854644E0,1.407268E0,-4.961751E-2,-4.802754E-2,1.5659043E0,1.679637E0,-4.5887947E-2,-3.9815303E-2,1.7313406E-1],"categories":[],"categories_nodes":[],"categories_segments":[],"categories_sizes":[],"default_left":[0,0,0,0,0,0,0,0,0,0,0,0,0],"id":39,"left_children":[1,3,-1,-1,5,7,-1,-1,9,11,-1,-1,-1],"loss_changes":[1.7794522E2,2.4652577E2,0E0,0E0,7.931036E1,5.6644318E1,0E0,0E0,4.053351E1,1.8359924E1,0E0,0E0,0E0],"parents":[2147483647,0,0,1,1,4,4,5,5,8,8,9,9],"right_children":[2,4,-1,-1,6,8,-1,-1,10,12,-1,-1,-1],"split_conditions":[4.9976665E-1,2E0,-5.1885266E-2,-5.154062E-2,1E0,2.7E1,-4.961751E-2,-4.802754E-2,3E0,1.1E1,-4.5887947E-2,-3.9815303E-2,1.7313406E-1],"split_indices":[46,8,0,0,38,0,0,0,8,33,0,0,0],"split_type":[0,0,0,0,0,0,0,0,0,0,0,0,0],"sum_hessian":[6.8721936E2,3.518302E2,3.3538916E2,1.423146E2,2.0951558E2,1.8529793E2,2.421766E1,1.4159718E1,1.7113821E2,1.6224472E2,8.893486E0,3.7296126E0,1.585151E2],"tree_param":{"num_deleted":"0","num_feature":"55","num_nodes":"13","size_leaf_vector":"1"}},{"base_weights":[1.3343675E-2,-6.909646E-2,6.780913E-1,-6.862608E-2,7.52788E-1,7.7914876E-1,-6.664074E-2,-6.6004254E-2,8.0349636E-1,8.0896705E-2,-5.722443E-2],"categories":[],"categories_nodes":[],"categories_segments":[],"categories_sizes":[],"default_left":[0,0,0,0,0,0,0,0,0,0,0],"id":40,"left_children":[1,-1,3,-1,5,7,-1,-1,9,-1,-1],"loss_changes":[1.5296606E3,0E0,1.7182501E2,0E0,6.0170044E1,5.5405334E1,0E0,0E0,1.2077942E1,0E0,0E0],"parents":[2147483647,0,0,2,2,4,4,5,5,8,8],"right_children":[2,-1,4,-1,6,8,-1,-1,10,-1,-1],"split_conditions":[2E0,-6.909646E-2,1E0,-6.862608E-2,1.8E1,1E0,-6.664074E-2,-6.6004254E-2,2.2E1,8.0896705E-2,-5.722443E-2],"split_indices":[12,0,19,0,4,15,0,0,2,0,0],"split_type":[0,0,0,0,0,0,0,0,0,0,0],"sum_hessian":[3.265201E3,1.5853322E3,1.6798688E3,8.670254E1,1.5931663E3,1.5646256E3,2.8540583E1,2.5526558E1,1.5390991E3,1.5334857E3,5.613323E0],"tree_param":{"num_deleted":"0","num_feature":"55","num_nodes":"11","size_leaf_vector":"1"}},{"base_weights":[5.9857494E-3,1.0468322E0,-5.4810923E-2,-5.404022E-2,1.2664638E-1],"categories":[],"categories_nodes":[],"categories_segments":[],"categories_sizes":[],"default_left":[0,0,0,0,0],"id":41,"left_children":[1,3,-1,-1,-1],"loss_changes":[8.8542194E2,1.8669995E2,0E0,0E0,0E0],"parents":[2147483647,0,0,1,1],"right_children":[2,4,-1,-1,-1],"split_conditions":[1E0,2E0,-5.4810923E-2,-5.404022E-2,1.2664638E-1],"split_indices":[15,2,0,0,0],"split_type":[0,0,0,0,0],"sum_hessian":[1.5331696E3,5.3238873E2,1.0007808E3,6.448106E1,4.6790768E2],"tree_param":{"num_deleted":"0","num_feature":"55","num_nodes":"5","size_leaf_vector":"1"}},{"base_weights":[2.5435374E-3,-4.8381525E-1,7.109517E-1,-5.450585E-2,7.4219935E-2,-5.485508E-2,1.268913E-1,-5.3978324E-2,1.1933472E-1],"categories":[],"categories_nodes":[],"categories_segments":[],"categories_sizes":[],"default_left":[0,0,0,0,0,0,0,0,0],"id":42,"left_children":[1,3,5,-1,7,-1,-1,-1,-1],"loss_changes":[5.2629456E2,3.1036865E1,4.377907E2,0E0,6.2742805E1,0E0,0E0,0E0,0E0],"parents":[2147483647,0,0,1,1,2,2,4,4],"right_children":[2,4,6,-1,8,-1,-1,-1,-1],"split_conditions":[1.8E1,5.1E1,1E0,-5.450585E-2,3.787144E0,-5.485508E-2,1.268913E-1,-5.3978324E-2,1.1933472E-1],"split_indices":[4,0,38,0,16,0,0,0,0],"split_type":[0,0,0,0,0,0,0,0,0],"sum_hessian":[1.5254615E3,9.0458984E2,6.2087177E2,8.153133E2,8.927652E1,1.9055775E2,4.30314E2,5.792474E1,3.135178E1],"tree_param":{"num_deleted":"0","num_feature":"55","num_nodes":"9","size_leaf_vector":"1"}},{"base_weights":[-1.5967462E-2,-5.2439004E-2,1.0497886E0,1.242329E0,-5.090923E-2,1.3541747E0,-4.9002074E-2,1.4475951E0,-4.7602266E-2,1.4788571E-1,-4.0467788E-2],"categories":[],"categories_nodes":[],"categories_segments":[],"categories_sizes":[],"default_left":[0,0,0,0,0,0,0,0,0,0,0],"id":43,"left_children":[1,-1,3,5,-1,7,-1,9,-1,-1,-1],"loss_changes":[4.7569888E2,0E0,8.580261E1,4.9711426E1,0E0,4.1426086E1,0E0,1.3818451E1,0E0,0E0,0E0],"parents":[2147483647,0,0,2,2,3,3,5,5,7,7],"right_children":[2,-1,4,6,-1,8,-1,10,-1,-1,-1],"split_conditions":[7E0,-5.2439004E-2,9E0,1E0,-5.090923E-2,1E0,-4.9002074E-2,1E0,-4.7602266E-2,1.4788571E-1,-4.0467788E-2],"split_indices":[9,0,9,38,0,27,0,10,0,0,0],"split_type":[0,0,0,0,0,0,0,0,0,0,0],"sum_hessian":[8.7599E2,5.934733E2,2.825167E2,2.516964E2,3.0820295E1,2.3669093E2,1.5005459E1,2.2544695E2,1.1244001E1,2.2195644E2,3.490506E0],"tree_param":{"num_deleted":"0","num_feature":"55","num_nodes":"11","size_leaf_vector":"1"}},{"base_weights":[1.1739808E-3,-4.484005E-1,1.0292358E0,-4.9768174E-1,5.1023513E-1,1.264513E0,-5.0948467E-2,-5.142821E-1,1.1871624E-1,1.5554948E-1,-3.8158363E-1,1.3654771E0,-4.8203886E-2,-5.225206E-2,-6.2023412E-2,-4.8271347E-2,3.7492195E-3,1.1967589E0,1.457932E-1,-4.5341443E-2,6.508041E-2,1.343862E0,-8.3267376E-2,9.45535E-1,1.4197269E-1,4.61927E-2,-4.387214E-2,-1.7785603E-2,1.2860174E-1],"categories":[],"categories_nodes":[],"categories_segments":[],"categories_sizes":[],"default_left":[0,0,0,0,0,0,0,0,0,0,0,0,0,0,0,0,0,0,0,0,0,0,0,0,0,0,0,0,0],"id":44,"left_children":[1,3,5,7,9,11,-1,13,-1,-1,15,17,-1,-1,19,-1,-1,21,-1,-1,-1,23,25,27,-1,-1,-1,-1,-1],"loss_changes":[4.101116E2,2.941085E1,9.846634E1,1.6978592E1,2.9209587E1,4.2103973E1,0E0,2.0800476E0,0E0,0E0,7.936177E-1,1.453186E0,0E0,0E0,3.5606942E0,0E0,0E0,1.6161034E1,0E0,0E0,0E0,7.170105E-1,2.0584366E0,6.2146997E0,0E0,0E0,0E0,0E0,0E0],"parents":[2147483647,0,0,1,1,2,2,3,3,4,4,5,5,7,7,10,10,11,11,14,14,17,17,21,21,22,22,23,23],"right_children":[2,4,6,8,10,12,-1,14,-1,-1,16,18,-1,-1,20,-1,-1,22,-1,-1,-1,24,26,28,-1,-1,-1,-1,-1],"split_conditions":[2.4E1,2E0,1E0,1E1,2E0,3.020233E0,-5.0948467E-2,1E0,1.1871624E-1,1.5554948E-1,1.4E1,9E0,-4.8203886E-2,-5.225206E-2,4.04E2,-4.8271347E-2,3.7492195E-3,3.7039819E0,1.457932E-1,-4.5341443E-2,6.508041E-2,1E0,3.9E1,1.2E1,1.4197269E-1,4.61927E-2,-4.387214E-2,-1.7785603E-2,1.2860174E-1],"split_indices":[4,10,26,8,6,46,0,27,0,0,6,9,0,0,44,0,0,16,0,0,0,10,2,8,0,0,0,0,0],"split_type":[0,0,0,0,0,0,0,0,0,0,0,0,0,0,0,0,0,0,0,0,0,0,0,0,0,0,0,0,0],"sum_hessian":[8.851976E2,6.1619867E2,2.689989E2,5.866267E2,2.9571968E1,2.3353375E2,3.5465153E1,5.8164996E2,4.9767466E0,1.3323756E1,1.624821E1,2.2103188E2,1.2501881E1,5.7087427E2,1.0775688E1,1.3159402E1,3.08881E0,8.356412E1,1.3746776E2,7.2817287E0,3.4939587E0,7.497598E1,8.588138E0,1.4360097E1,6.0615883E1,3.1601849E0,5.4279532E0,3.3827972E0,1.09773E1],"tree_param":{"num_deleted":"0","num_feature":"55","num_nodes":"29","size_leaf_vector":"1"}},{"base_weights":[-2.0693207E-2,8.660397E-1,-5.1737037E-2,1.4354622E-1,-5.1087853E-2],"categories":[],"categories_nodes":[],"categories_segments":[],"categories_sizes":[],"default_left":[0,0,0,0,0],"id":45,"left_children":[1,3,-1,-1,-1],"loss_changes":[2.963602E2,1.902152E2,0E0,0E0,0E0],"parents":[2147483647,0,0,1,1],"right_children":[2,4,-1,-1,-1],"split_conditions":[1E0,2E0,-5.1737037E-2,1.4354622E-1,-5.1087853E-2],"split_indices":[15,2,0,0,0],"split_type":[0,0,0,0,0],"sum_hessian":[6.709654E2,2.4055327E2,4.304121E2,1.7019818E2,7.0355095E1],"tree_param":{"num_deleted":"0","num_feature":"55","num_nodes":"5","size_leaf_vector":"1"}},{"base_weights":[-1.8158965E-3,1.3174278E0,-2.4860804E-1,-4.1661125E-2,1.3678022E-1,1.3762872E-1,-3.332383E-1,-4.8940964E-2,-5.3140696E-2,1.2891623E0,-5.2812904E-2,1.3840728E-1,-4.726042E-2],"categories":[],"categories_nodes":[],"categories_segments":[],"categories_sizes":[],"default_left":[0,0,0,0,0,0,0,0,0,0,0,0,0],"id":46,"left_children":[1,3,5,-1,-1,-1,7,9,-1,11,-1,-1,-1],"loss_changes":[3.4965588E2,1.5447632E1,1.2481131E2,0E0,0E0,0E0,4.842933E1,2.282306E2,0E0,1.6436676E1,0E0,0E0,0E0],"parents":[2147483647,0,0,1,1,2,2,6,6,7,7,9,9],"right_children":[2,4,6,-1,-1,-1,8,10,-1,12,-1,-1,-1],"split_conditions":[2.1E1,2E0,1.1E1,-4.1661125E-2,1.3678022E-1,1.3762872E-1,9.1829586E-1,2E0,-5.3140696E-2,4.29E2,-5.2812904E-2,1.3840728E-1,-4.726042E-2],"split_indices":[7,8,33,0,0,0,16,12,0,44,0,0,0],"split_type":[0,0,0,0,0,0,0,0,0,0,0,0,0],"sum_hessian":[1.0722734E3,1.6823244E2,9.0404095E2,4.487959E0,1.6374448E2,4.39406E1,8.601004E2,3.5399805E2,5.0610233E2,9.28424E1,2.6115567E2,8.835372E1,4.4886756E0],"tree_param":{"num_deleted":"0","num_feature":"55","num_nodes":"13","size_leaf_vector":"1"}},{"base_weights":[-1.1930002E-3,4.5598343E-1,-5.1736046E-2,-5.1360577E-2,1.0396761E0,1.2211567E0,-4.941122E-2,-4.7805708E-2,1.3485729E0,1.4293067E0,-4.5220375E-2,-3.7979573E-2,1.4650118E0,8.3978194E-1,1.4854667E0,1.8958957E-1,-3.933437E-2,1.5108812E-1,9.547388E-2],"categories":[],"categories_nodes":[],"categories_segments":[],"categories_sizes":[],"default_left":[0,0,0,0,0,0,0,0,0,0,0,0,0,0,0,0,0,0,0],"id":47,"left_children":[1,3,-1,-1,5,7,-1,-1,9,11,-1,-1,13,15,17,-1,-1,-1,-1],"loss_changes":[1.6081477E2,2.0504707E2,0E0,0E0,6.355873E1,4.4542908E1,0E0,0E0,2.8156952E1,1.2340851E1,0E0,0E0,7.903137E-1,1.1417676E1,6.098633E-1,0E0,0E0,0E0,0E0],"parents":[2147483647,0,0,1,1,4,4,5,5,8,8,9,9,12,12,13,13,14,14],"right_children":[2,4,-1,-1,6,8,-1,-1,10,12,-1,-1,14,16,18,-1,-1,-1,-1],"split_conditions":[4.9976665E-1,2E0,-5.1736046E-2,-5.1360577E-2,1E0,2.7E1,-4.941122E-2,-4.7805708E-2,2.6E1,1.1E1,-4.5220375E-2,-3.7979573E-2,2.3E1,2.9E1,2.8846154E-1,1.8958957E-1,-3.933437E-2,1.5108812E-1,9.547388E-2],"split_indices":[46,8,0,0,38,0,0,0,2,33,0,0,7,0,17,0,0,0,0],"split_type":[0,0,0,0,0,0,0,0,0,0,0,0,0,0,0,0,0,0,0],"sum_hessian":[6.794518E2,3.602746E2,3.191772E2,1.3536482E2,2.2490977E2,2.013542E2,2.3555567E1,1.3798711E1,1.875555E2,1.7975824E2,7.7972507E0,3.238387E0,1.7651985E2,7.079178E0,1.6944067E2,3.5674496E0,3.5117283E0,1.5975537E2,9.685299E0],"tree_param":{"num_deleted":"0","num_feature":"55","num_nodes":"19","size_leaf_vector":"1"}},{"base_weights":[7.7790967E-3,-6.6997714E-2,6.4076567E-1,7.440706E-1,-6.663541E-2,7.489538E-1,-5.5389773E-2,7.5371605E-1,-5.4332364E-2,7.570112E-1,-4.9668208E-2,6.6855836E-1,7.7407435E-2,7.474174E-1,-6.652098E-2,-5.1251598E-2,7.7096544E-2],"categories":[],"categories_nodes":[],"categories_segments":[],"categories_sizes":[],"default_left":[0,0,0,0,0,0,0,0,0,0,0,0,0,0,0,0,0],"id":48,"left_children":[1,-1,3,5,-1,7,-1,9,-1,11,-1,13,-1,15,-1,-1,-1],"loss_changes":[1.3353914E3,0E0,2.178501E2,9.892517E0,0E0,9.582825E0,0E0,6.508972E0,0E0,1.5700684E0,0E0,2.6528717E1,0E0,7.3679047E0,0E0,0E0,0E0],"parents":[2147483647,0,0,2,2,3,3,5,5,7,7,9,9,11,11,13,13],"right_children":[2,-1,4,6,-1,8,-1,10,-1,12,-1,14,-1,16,-1,-1,-1],"split_conditions":[2E0,-6.6997714E-2,4.01E2,1.8E1,-6.663541E-2,1E0,-5.5389773E-2,2.2E1,-5.4332364E-2,1E0,-4.9668208E-2,2E0,7.7407435E-2,1.3E1,-6.652098E-2,-5.1251598E-2,7.7096544E-2],"split_indices":[12,0,44,4,0,20,0,2,0,38,0,8,0,1,0,0,0],"split_type":[0,0,0,0,0,0,0,0,0,0,0,0,0,0,0,0,0],"sum_hessian":[3.1107295E3,1.5021353E3,1.6085942E3,1.4912448E3,1.1734954E2,1.4861536E3,5.0911775E0,1.4811892E3,4.9642663E0,1.4777695E3,3.4197628E0,2.4641762E2,1.2313519E3,2.3314737E2,1.3270243E1,3.8186805E0,2.2932869E2],"tree_param":{"num_deleted":"0","num_feature":"55","num_nodes":"17","size_leaf_vector":"1"}},{"base_weights":[-2.445971E-3,9.468749E-1,-5.4414894E-2,-5.3602047E-2,1.1357492E-1],"categories":[],"categories_nodes":[],"categories_segments":[],"categories_sizes":[],"default_left":[0,0,0,0,0],"id":49,"left_children":[1,3,-1,-1,-1],"loss_changes":[7.556323E2,1.5017719E2,0E0,0E0,0E0],"parents":[2147483647,0,0,1,1],"right_children":[2,4,-1,-1,-1],"split_conditions":[1E0,2E0,-5.4414894E-2,-5.3602047E-2,1.1357492E-1],"split_indices":[15,2,0,0,0],"split_type":[0,0,0,0,0],"sum_hessian":[1.4674636E3,5.328045E2,9.346591E2,5.992807E1,4.7287643E2],"tree_param":{"num_deleted":"0","num_feature":"55","num_nodes":"5","size_leaf_vector":"1"}},{"base_weights":[-4.570958E-3,-4.7507185E-1,6.369054E-1,-5.432839E-2,6.2750556E-2,9.4918305E-1,-5.427565E-2,-3.6829033E-1,9.346443E-1,1.0222644E0,-5.210006E-2,-5.3402204E-2,1.1161777E-1,1.1231476E-1,-4.095123E-2,1.0877526E0,-5.1492967E-2,1.0179042E-1,-4.8909973E-2,1.1139696E0,-3.7662208E-2,3.040852E-2,1.1195504E-1],"categories":[],"categories_nodes":[],"categories_segments":[],"categories_sizes":[],"default_left":[0,0,0,0,0,0,0,0,0,0,0,0,0,0,0,0,0,0,0,0,0,0,0],"id":50,"left_children":[1,3,5,-1,7,9,-1,11,13,15,-1,-1,17,-1,-1,19,-1,-1,-1,21,-1,-1,-1],"loss_changes":[4.4262866E2,3.1123611E1,2.2912437E2,0E0,3.6467926E1,5.334018E1,0E0,5.2605896E0,8.666771E0,4.7747925E1,0E0,0E0,9.980955E0,0E0,0E0,1.7747498E1,0E0,0E0,0E0,1.5142822E0,0E0,0E0,0E0],"parents":[2147483647,0,0,1,1,2,2,4,4,5,5,7,7,8,8,9,9,12,12,15,15,19,19],"right_children":[2,4,6,-1,8,10,-1,12,14,16,-1,-1,18,-1,-1,20,-1,-1,-1,22,-1,-1,-1],"split_conditions":[1.8E1,2.1E1,3E0,-5.432839E-2,5.2E1,2.0201976E0,-5.427565E-2,3E1,4E0,5.9E1,-5.210006E-2,-5.3402204E-2,2E1,1.1231476E-1,-4.095123E-2,1.21212125E-1,-5.1492967E-2,1.0179042E-1,-4.8909973E-2,4.4E1,-3.7662208E-2,3.040852E-2,1.1195504E-1],"split_indices":[4,2,8,0,7,46,0,6,9,3,0,0,3,0,0,18,0,0,0,0,0,0,0],"split_type":[0,0,0,0,0,0,0,0,0,0,0,0,0,0,0,0,0,0,0,0,0,0,0],"sum_hessian":[1.4646064E3,8.451403E2,6.194661E2,7.5017175E2,9.496853E1,4.9002725E2,1.2943884E2,6.3860504E1,3.110802E1,4.6717703E2,2.2850214E1,4.7538986E1,1.632152E1,2.749146E1,3.6165602E0,4.4843024E2,1.8746801E1,6.295562E0,1.0025958E1,4.4084528E2,7.584957E0,3.5193725E0,4.373259E2],"tree_param":{"num_deleted":"0","num_feature":"55","num_nodes":"23","size_leaf_vector":"1"}},{"base_weights":[-1.7465299E-2,-5.224023E-2,9.252048E-1,1.0843368E0,-5.0647717E-2,1.1876906E0,-4.9042262E-2,1.264382E0,-4.7209036E-2,1.2891392E-1,-3.9292436E-2],"categories":[],"categories_nodes":[],"categories_segments":[],"categories_sizes":[],"default_left":[0,0,0,0,0,0,0,0,0,0,0],"id":51,"left_children":[1,-1,3,5,-1,7,-1,9,-1,-1,-1],"loss_changes":[3.9898044E2,0E0,6.721034E1,4.3535614E1,0E0,3.219397E1,0E0,1.0320282E1,0E0,0E0,0E0],"parents":[2147483647,0,0,2,2,3,3,5,5,7,7],"right_children":[2,-1,4,6,-1,8,-1,10,-1,-1,-1],"split_conditions":[7E0,-5.224023E-2,9E0,1E0,-5.0647717E-2,2E0,-4.9042262E-2,1E0,-4.7209036E-2,1.2891392E-1,-3.9292436E-2],"split_indices":[9,0,9,38,0,28,0,10,0,0,0],"split_type":[0,0,0,0,0,0,0,0,0,0,0],"sum_hessian":[8.362828E2,5.4494E2,2.9134274E2,2.624804E2,2.8862314E1,2.4660466E2,1.5875759E1,2.3599864E2,1.0606013E1,2.3280347E2,3.1951792E0],"tree_param":{"num_deleted":"0","num_feature":"55","num_nodes":"11","size_leaf_vector":"1"}},{"base_weights":[2.3546368E-3,-4.117521E-1,1.0092977E0,-5.0837964E-1,1.1779488E0,1.1414794E0,-4.962037E-2,-5.2244086E-2,2.2035065E-1,1.2621295E-1,3.607791E-2,-4.700984E-2,1.2147087E0,1.1780981E-1,-4.405085E-2,1.2611786E0,-4.333195E-2,4.688137E-2,1.2700711E-1],"categories":[],"categories_nodes":[],"categories_segments":[],"categories_sizes":[],"default_left":[0,0,0,0,0,0,0,0,0,0,0,0,0,0,0,0,0,0,0],"id":52,"left_children":[1,3,5,7,9,11,-1,-1,13,-1,-1,-1,15,-1,-1,17,-1,-1,-1],"loss_changes":[3.5656778E2,9.35819E1,5.0224915E1,6.0045624E0,1.7867393E0,2.7725769E1,0E0,0E0,7.8038797E0,0E0,0E0,0E0,1.7464722E1,0E0,0E0,7.393799E-1,0E0,0E0,0E0],"parents":[2147483647,0,0,1,1,2,2,3,3,4,4,5,5,8,8,12,12,15,15],"right_children":[2,4,6,8,10,12,-1,-1,14,-1,-1,-1,16,-1,-1,18,-1,-1,-1],"split_conditions":[4E0,1.2E1,3.020233E0,6E0,3.7201755E0,9.1829586E-1,-4.962037E-2,-5.2244086E-2,2E0,1.2621295E-1,3.607791E-2,-4.700984E-2,1E0,1.1780981E-1,-4.405085E-2,1.9354838E-1,-4.333195E-2,4.688137E-2,1.2700711E-1],"split_indices":[8,10,46,10,16,16,0,0,6,0,0,0,14,0,0,17,0,0,0],"split_type":[0,0,0,0,0,0,0,0,0,0,0,0,0,0,0,0,0,0,0],"sum_hessian":[8.5297577E2,6.047594E2,2.4821637E2,5.708069E2,3.395251E1,2.2846552E2,1.9750854E1,5.604137E2,1.0393185E1,3.0176949E1,3.7755623E0,9.63523E0,2.1883029E2,3.9856458E0,6.4075394E0,2.1311641E2,5.7138815E0,3.0862246E0,2.1003018E2],"tree_param":{"num_deleted":"0","num_feature":"55","num_nodes":"19","size_leaf_vector":"1"}},{"base_weights":[-3.7854789E-3,8.1182706E-1,-5.1589895E-2,1.2637053E-1,-5.0882306E-2],"categories":[],"categories_nodes":[],"categories_segments":[],"categories_sizes":[],"default_left":[0,0,0,0,0],"id":53,"left_children":[1,3,-1,-1,-1],"loss_changes":[2.770969E2,1.5339421E2,0E0,0E0,0E0],"parents":[2147483647,0,0,1,1],"right_children":[2,4,-1,-1,-1],"split_conditions":[1E0,2E0,-5.1589895E-2,1.2637053E-1,-5.0882306E-2],"split_indices":[42,2,0,0,0],"split_type":[0,0,0,0,0],"sum_hessian":[6.614775E2,2.5483556E2,4.066419E2,1.899578E2,6.487777E1],"tree_param":{"num_deleted":"0","num_feature":"55","num_nodes":"5","size_leaf_vector":"1"}},{"base_weights":[8.407725E-3,1.1700761E0,-2.4553487E-1,-4.171371E-2,1.21290125E-1,1.21501625E-1,-3.2108977E-1,-3.4451667E-2,-5.28933E-2,-5.2470364E-2,7.9375535E-1,9.7619134E-1,-5.0915178E-2,1.0624446E0,-4.5809638E-2,5.8719885E-1,1.2682484E-1,1.0649177E-1,-4.7600582E-2],"categories":[],"categories_nodes":[],"categories_segments":[],"categories_sizes":[],"default_left":[0,0,0,0,0,0,0,0,0,0,0,0,0,0,0,0,0,0,0],"id":54,"left_children":[1,3,5,-1,-1,-1,7,9,-1,-1,11,13,-1,15,-1,17,-1,-1,-1],"loss_changes":[3.0829962E2,1.3329712E1,9.490718E1,0E0,0E0,0E0,4.8539574E1,1.4016939E2,0E0,0E0,3.104757E1,1.4523949E1,0E0,9.528961E0,0E0,1.7999348E1,0E0,0E0,0E0],"parents":[2147483647,0,0,1,1,2,2,6,6,7,7,10,10,11,11,13,13,15,15],"right_children":[2,4,6,-1,-1,-1,8,10,-1,-1,12,14,-1,16,-1,18,-1,-1,-1],"split_conditions":[2.7E1,2E0,1.1E1,-4.171371E-2,1.21290125E-1,1.21501625E-1,3E0,2E0,-5.28933E-2,-5.2470364E-2,4.29E2,3E0,-5.0915178E-2,2E0,-4.5809638E-2,3.2E1,1.2682484E-1,1.0649177E-1,-4.7600582E-2],"split_indices":[0,8,33,0,0,0,3,8,0,0,44,5,0,2,0,0,0,0,0],"split_type":[0,0,0,0,0,0,0,0,0,0,0,0,0,0,0,0,0,0,0],"sum_hessian":[1.0428065E3,1.8648969E2,8.5631683E2,4.608564E0,1.8188112E2,4.131191E1,8.1500494E2,3.4325974E2,4.7174518E2,2.159291E2,1.27330666E2,1.1197867E2,1.53519945E1,1.0593695E2,6.0417147E0,3.3323906E1,7.2613045E1,2.3056578E1,1.0267329E1],"tree_param":{"num_deleted":"0","num_feature":"55","num_nodes":"19","size_leaf_vector":"1"}},{"base_weights":[-2.427844E-3,4.2707807E-1,-5.1583838E-2,-5.117005E-2,9.2265874E-1,1.0792446E0,-4.9203888E-2,-4.7235016E-2,1.1791987E0,1.2482461E0,-4.490426E-2,-3.729576E-2,1.2770925E0,7.687131E-1,1.2931709E-1,1.6201757E-1,-3.854838E-2],"categories":[],"categories_nodes":[],"categories_segments":[],"categories_sizes":[],"default_left":[0,0,0,0,0,0,0,0,0,0,0,0,0,0,0,0,0],"id":55,"left_children":[1,3,-1,-1,5,7,-1,-1,9,11,-1,-1,13,15,-1,-1,-1],"loss_changes":[1.4376955E2,1.6561404E2,0E0,0E0,5.2135147E1,3.3177017E1,0E0,0E0,2.2846863E1,9.443298E0,0E0,0E0,3.263855E-1,8.985909E0,0E0,0E0,0E0],"parents":[2147483647,0,0,1,1,4,4,5,5,8,8,9,9,12,12,13,13],"right_children":[2,4,-1,-1,6,8,-1,-1,10,12,-1,-1,14,16,-1,-1,-1],"split_conditions":[4.9976665E-1,2E0,-5.1583838E-2,-5.117005E-2,1E0,2.7E1,-4.9203888E-2,-4.7235016E-2,3E0,1.1E1,-4.490426E-2,-3.729576E-2,2.3E1,2.9E1,1.2931709E-1,1.6201757E-1,-3.854838E-2],"split_indices":[46,8,0,0,38,0,0,0,8,33,0,0,7,0,0,0,0],"split_type":[0,0,0,0,0,0,0,0,0,0,0,0,0,0,0,0,0],"sum_hessian":[6.499387E2,3.53872E2,2.960667E2,1.2218417E2,2.3168782E2,2.0887616E2,2.281167E1,1.2355452E1,1.965207E2,1.8880885E2,7.711848E0,3.0316284E0,1.8577722E2,7.382441E0,1.7839479E2,4.065901E0,3.3165402E0],"tree_param":{"num_deleted":"0","num_feature":"55","num_nodes":"17","size_leaf_vector":"1"}},{"base_weights":[1.0213943E-2,-6.5186195E-2,6.1497504E-1,7.1020496E-1,-6.4729325E-2,-6.257545E-2,7.2743654E-1,-5.758908E-2,7.3560554E-1,7.393032E-2,-5.0315678E-2],"categories":[],"categories_nodes":[],"categories_segments":[],"categories_sizes":[],"default_left":[0,0,0,0,0,0,0,0,0,0,0],"id":56,"left_children":[1,-1,3,5,-1,-1,7,-1,9,-1,-1],"loss_changes":[1.1880339E3,0E0,1.8687653E2,3.36734E1,0E0,0E0,1.5608032E1,0E0,6.8831177E0,0E0,0E0],"parents":[2147483647,0,0,2,2,3,3,6,6,8,8],"right_children":[2,-1,4,6,-1,-1,8,-1,10,-1,-1],"split_conditions":[2E0,-6.5186195E-2,4.01E2,1E0,-6.4729325E-2,-6.257545E-2,1E0,-5.758908E-2,1.8E1,7.393032E-2,-5.0315678E-2],"split_indices":[12,0,44,19,0,0,15,0,4,0,0],"split_type":[0,0,0,0,0,0,0,0,0,0,0],"sum_hessian":[2.9651428E3,1.4153802E3,1.5497627E3,1.4415255E3,1.08237175E2,1.7832851E1,1.4236926E3,8.358672E0,1.415334E3,1.4116042E3,3.7296975E0],"tree_param":{"num_deleted":"0","num_feature":"55","num_nodes":"11","size_leaf_vector":"1"}},{"base_weights":[-7.987943E-3,8.690408E-1,-5.4040875E-2,-5.316403E-2,1.0347978E-1],"categories":[],"categories_nodes":[],"categories_segments":[],"categories_sizes":[],"default_left":[0,0,0,0,0],"id":57,"left_children":[1,3,-1,-1,-1],"loss_changes":[6.483374E2,1.22363464E2,0E0,0E0,0E0],"parents":[2147483647,0,0,1,1],"right_children":[2,4,-1,-1,-1],"split_conditions":[1E0,2E0,-5.4040875E-2,-5.316403E-2,1.0347978E-1],"split_indices":[15,2,0,0,0],"split_type":[0,0,0,0,0],"sum_hessian":[1.3865211E3,5.2344977E2,8.630713E2,5.5092896E1,4.6835687E2],"tree_param":{"num_deleted":"0","num_feature":"55","num_nodes":"5","size_leaf_vector":"1"}},{"base_weights":[7.746123E-3,-5.4073017E-2,9.738293E-1,-5.087573E-2,1.0192387E0,-4.5199107E-2,1.039765E-1],"categories":[],"categories_nodes":[],"categories_segments":[],"categories_sizes":[],"default_left":[0,0,0,0,0,0,0],"id":58,"left_children":[1,-1,3,-1,5,-1,-1],"loss_changes":[7.3890173E2,0E0,3.456967E1,0E0,1.5338898E1,0E0,0E0],"parents":[2147483647,0,0,2,2,4,4],"right_children":[2,-1,4,-1,6,-1,-1],"split_conditions":[1E0,-5.4073017E-2,1E0,-5.087573E-2,1.3E1,-4.5199107E-2,1.039765E-1],"split_indices":[24,0,38,0,2,0,0],"split_type":[0,0,0,0,0,0,0],"sum_hessian":[1.3924109E3,8.883838E2,5.040271E2,1.4610116E1,4.89417E2,6.378028E0,4.8303894E2],"tree_param":{"num_deleted":"0","num_feature":"55","num_nodes":"7","size_leaf_vector":"1"}},{"base_weights":[-1.1704945E-2,-5.2046336E-2,8.517803E-1,9.89727E-1,-5.0328474E-2,1.074681E0,-4.8515167E-2,1.1394047E0,-4.678403E-2,1.1605656E-1,-3.8373157E-2],"categories":[],"categories_nodes":[],"categories_segments":[],"categories_sizes":[],"default_left":[0,0,0,0,0,0,0,0,0,0,0],"id":59,"left_children":[1,-1,3,5,-1,7,-1,9,-1,-1,-1],"loss_changes":[3.557502E2,0E0,5.6660965E1,3.4769043E1,0E0,2.6395782E1,0E0,8.526764E0,0E0,0E0,0E0],"parents":[2147483647,0,0,2,2,3,3,5,5,7,7],"right_children":[2,-1,4,6,-1,8,-1,10,-1,-1,-1],"split_conditions":[7E0,-5.2046336E-2,9E0,1E0,-5.0328474E-2,2E0,-4.8515167E-2,1E0,-4.678403E-2,1.1605656E-1,-3.8373157E-2],"split_indices":[9,0,9,38,0,28,0,10,0,0,0],"split_type":[0,0,0,0,0,0,0,0,0,0,0],"sum_hessian":[8.078679E2,5.086743E2,2.9919366E2,2.7186136E2,2.73323E1,2.573755E2,1.4485871E1,2.4732404E2,1.0051452E1,2.4423457E2,3.089458E0],"tree_param":{"num_deleted":"0","num_feature":"55","num_nodes":"11","size_leaf_vector":"1"}},{"base_weights":[5.478067E-3,-4.018311E-1,9.2494524E-1,-5.2055683E-2,8.733534E-1,1.037042E0,-4.92077E-2,1.1966665E-1,-4.646372E-2,-4.6471406E-2,1.099237E0,1.1396955E0,-4.2891704E-2,5.2011967E-2,1.1472868E-1],"categories":[],"categories_nodes":[],"categories_segments":[],"categories_sizes":[],"default_left":[0,0,0,0,0,0,0,0,0,0,0,0,0,0,0],"id":60,"left_children":[1,3,5,-1,7,9,-1,-1,-1,-1,11,13,-1,-1,-1],"loss_changes":[3.0924286E2,8.7030136E1,4.0835434E1,0E0,2.1838264E1,2.2554047E1,0E0,0E0,0E0,0E0,1.455304E1,2.75177E-1,0E0,0E0,0E0],"parents":[2147483647,0,0,1,1,2,2,4,4,5,5,10,10,11,11],"right_children":[2,4,6,-1,8,10,-1,-1,-1,-1,12,14,-1,-1,-1],"split_conditions":[4E0,6E0,3.020233E0,-5.2055683E-2,2E0,3E0,-4.92077E-2,1.1966665E-1,-4.646372E-2,-4.6471406E-2,1E0,1.9444445E-1,-4.2891704E-2,5.2011967E-2,1.1472868E-1],"split_indices":[8,10,46,0,6,3,0,0,0,0,14,17,0,0,0],"split_type":[0,0,0,0,0,0,0,0,0,0,0,0,0,0,0],"sum_hessian":[8.236002E2,5.7107666E2,2.5252357E2,5.230486E2,4.802809E1,2.3432542E2,1.8198137E1,3.8826412E1,9.201679E0,8.997296E0,2.2532814E2,2.1982774E2,5.5003905E0,3.6616673E0,2.1616608E2],"tree_param":{"num_deleted":"0","num_feature":"55","num_nodes":"15","size_leaf_vector":"1"}},{"base_weights":[-1.718909E-2,7.368053E-1,-5.1448014E-2,1.1343356E-1,-5.0676305E-2],"categories":[],"categories_nodes":[],"categories_segments":[],"categories_sizes":[],"default_left":[0,0,0,0,0],"id":61,"left_children":[1,3,-1,-1,-1],"loss_changes":[2.3439163E2,1.2343109E2,0E0,0E0,0E0],"parents":[2147483647,0,0,1,1],"right_children":[2,4,-1,-1,-1],"split_conditions":[1E0,2E0,-5.1448014E-2,1.1343356E-1,-5.0676305E-2],"split_indices":[15,2,0,0,0],"split_type":[0,0,0,0,0],"sum_hessian":[6.231683E2,2.473908E2,3.7577753E2,1.8759177E2,5.9799026E1],"tree_param":{"num_deleted":"0","num_feature":"55","num_nodes":"5","size_leaf_vector":"1"}},{"base_weights":[-4.407525E-3,1.0624565E0,-2.3721395E-1,1.0944524E-1,-3.881496E-2,1.0991794E-1,-3.1751797E-1,-3.3523448E-2,-5.265854E-2,1.0097234E0,-5.2287098E-2,-4.5691017E-2,1.090179E-1],"categories":[],"categories_nodes":[],"categories_segments":[],"categories_sizes":[],"default_left":[0,0,0,0,0,0,0,0,0,0,0,0,0],"id":62,"left_children":[1,3,5,-1,-1,-1,7,9,-1,11,-1,-1,-1],"loss_changes":[2.4687614E2,8.758484E0,8.787008E1,0E0,0E0,0E0,4.569409E1,1.6798813E2,0E0,1.29563675E1,0E0,0E0,0E0],"parents":[2147483647,0,0,1,1,2,2,6,6,7,7,9,9],"right_children":[2,4,6,-1,-1,-1,8,10,-1,12,-1,-1,-1],"split_conditions":[2.7E1,4E0,1.1E1,1.0944524E-1,-3.881496E-2,1.0991794E-1,9.1829586E-1,2E0,-5.265854E-2,6E0,-5.2287098E-2,-4.5691017E-2,1.090179E-1],"split_indices":[0,9,33,0,0,0,16,12,0,1,0,0,0],"split_type":[0,0,0,0,0,0,0,0,0,0,0,0,0],"sum_hessian":[9.9229175E2,1.7703122E2,8.152605E2,1.735184E2,3.5128214E0,4.5422417E1,7.6983813E2,3.2712048E2,4.4271762E2,1.0404268E2,2.230778E2,5.1027193E0,9.893996E1],"tree_param":{"num_deleted":"0","num_feature":"55","num_nodes":"13","size_leaf_vector":"1"}},{"base_weights":[-8.007813E-3,2.544557E-1,-5.1274218E-2,-2.7367207E-1,8.8155174E-1,-3.6237544E-1,1.11785404E-1,3.1718242E-1,1.1126213E0,-4.23895E-1,1.1284275E-1,1.1068188E0,-1.744765E-1,-3.6927775E-2,1.15206674E-1,6.91062E-2,-5.1418163E-2,1.2703505E-1,6.6170096E-1,4.669627E-1,-4.8980948E-2,-4.856381E-2,8.603764E-1,2.8018996E-2,8.9462236E-2,-3.9687086E-2,9.907024E-2,1.629222E-1,-4.4040572E-2],"categories":[],"categories_nodes":[],"categories_segments":[],"categories_sizes":[],"default_left":[0,0,0,0,0,0,0,0,0,0,0,0,0,0,0,0,0,0,0,0,0,0,0,0,0,0,0,0,0],"id":63,"left_children":[1,3,-1,5,7,9,-1,11,13,15,-1,17,19,-1,-1,21,-1,-1,23,25,-1,-1,27,-1,-1,-1,-1,-1,-1],"loss_changes":[8.283878E1,1.3647128E2,0E0,2.7962004E1,2.4058624E1,1.9784536E1,0E0,2.2113203E1,8.282089E0,9.146656E0,0E0,5.5212784E-1,7.398088E0,0E0,0E0,1.4606869E1,0E0,0E0,3.5210824E-1,5.920417E0,0E0,0E0,1.455996E1,0E0,0E0,0E0,0E0,0E0,0E0],"parents":[2147483647,0,0,1,1,3,3,4,4,5,5,7,7,8,8,9,9,11,11,12,12,15,15,18,18,19,19,22,22],"right_children":[2,4,-1,6,8,10,-1,12,14,16,-1,18,20,-1,-1,22,-1,-1,24,26,-1,-1,28,-1,-1,-1,-1,-1,-1],"split_conditions":[1E0,2E0,-5.1274218E-2,1.2E1,1E0,2E0,1.11785404E-1,1.4E1,1E0,7E0,1.1284275E-1,3E0,2.0588236E-1,-3.6927775E-2,1.15206674E-1,2.1E1,-5.1418163E-2,1.2703505E-1,2.857143E-1,8E0,-4.8980948E-2,-4.856381E-2,9E0,2.8018996E-2,8.9462236E-2,-3.9687086E-2,9.907024E-2,1.629222E-1,-4.4040572E-2],"split_indices":[38,12,0,26,47,13,0,1,15,4,0,3,17,0,0,7,0,0,17,4,0,0,1,0,0,0,0,0,0],"split_type":[0,0,0,0,0,0,0,0,0,0,0,0,0,0,0,0,0,0,0,0,0,0,0,0,0,0,0,0,0],"sum_hessian":[6.2313965E2,4.101553E2,2.1298433E2,2.2286607E2,1.8728922E2,2.1027356E2,1.2592521E1,5.52212E1,1.3206802E2,2.0269199E2,7.581564E0,2.078743E1,3.443377E1,3.1417227E0,1.289263E2,3.1239388E1,1.714526E2,1.3682133E1,7.1052976E0,1.1085684E1,2.3348087E1,1.8517208E1,1.272218E1,3.6913536E0,3.4139442E0,4.2036567E0,6.8820267E0,7.885643E0,4.836538E0],"tree_param":{"num_deleted":"0","num_feature":"55","num_nodes":"29","size_leaf_vector":"1"}},{"base_weights":[4.289489E-3,-5.886115E-1,5.2257746E-1,6.958958E-2,-6.3551284E-2,6.480747E-1,-6.342029E-2,-6.114545E-2,6.7414206E-1,6.856751E-1,-5.9192706E-2,-5.6361604E-2,6.9444007E-1,7.1171336E-2,5.8528495E-1,-6.359419E-2,7.0770286E-2],"categories":[],"categories_nodes":[],"categories_segments":[],"categories_sizes":[],"default_left":[0,0,0,0,0,0,0,0,0,0,0,0,0,0,0,0,0],"id":64,"left_children":[1,3,5,-1,-1,7,-1,-1,9,11,-1,-1,13,-1,15,-1,-1],"loss_changes":[8.582551E2,7.89133E1,2.1676941E2,0E0,0E0,4.458008E1,0E0,0E0,1.9664978E1,1.471582E1,0E0,0E0,1.9017944E0,0E0,2.7937424E1,0E0,0E0],"parents":[2147483647,0,0,1,1,2,2,5,5,8,8,9,9,12,12,14,14],"right_children":[2,4,6,-1,-1,8,-1,-1,10,12,-1,-1,14,-1,16,-1,-1],"split_conditions":[9E0,1E0,4.01E2,6.958958E-2,-6.3551284E-2,4E0,-6.342029E-2,-6.114545E-2,2E-1,1E0,-5.9192706E-2,-5.6361604E-2,2E0,7.1171336E-2,1.8E1,-6.359419E-2,7.0770286E-2],"split_indices":[1,35,44,0,0,9,0,0,54,15,0,0,8,0,3,0,0],"split_type":[0,0,0,0,0,0,0,0,0,0,0,0,0,0,0,0,0],"sum_hessian":[2.7909705E3,1.3016293E3,1.4893412E3,4.528977E1,1.2563395E3,1.3440531E3,1.45288E2,2.6719526E1,1.3173336E3,1.3059745E3,1.1359099E1,8.578294E0,1.2973962E3,1.1145823E3,1.82814E2,1.6199352E1,1.6661464E2],"tree_param":{"num_deleted":"0","num_feature":"55","num_nodes":"17","size_leaf_vector":"1"}},{"base_weights":[3.0190605E-3,8.078937E-1,-5.369689E-2,9.550213E-2,-5.280145E-2],"categories":[],"categories_nodes":[],"categories_segments":[],"categories_sizes":[],"default_left":[0,0,0,0,0],"id":65,"left_children":[1,3,-1,-1,-1],"loss_changes":[5.870128E2,1.07145325E2,0E0,0E0,0E0],"parents":[2147483647,0,0,1,1],"right_children":[2,4,-1,-1,-1],"split_conditions":[1E0,3.6E1,-5.369689E-2,9.550213E-2,-5.280145E-2],"split_indices":[42,7,0,0,0],"split_type":[0,0,0,0,0],"sum_hessian":[1.3485662E3,5.4135016E2,8.07216E2,4.8796866E2,5.3381493E1],"tree_param":{"num_deleted":"0","num_feature":"55","num_nodes":"5","size_leaf_vector":"1"}},{"base_weights":[-3.383052E-3,-4.8156047E-1,4.7562543E-1,-5.076588E-1,7.70856E-2,-5.3838283E-2,8.8310736E-1,-5.3593595E-2,-2.7211517E-1,-5.0982684E-2,9.593553E-2,-5.277415E-2,8.906011E-2],"categories":[],"categories_nodes":[],"categories_segments":[],"categories_sizes":[],"default_left":[0,0,0,0,0,0,0,0,0,0,0,0,0],"id":66,"left_children":[1,3,5,7,-1,-1,9,-1,11,-1,-1,-1,-1],"loss_changes":[3.076077E2,2.2335388E1,2.776768E2,4.163452E0,0E0,0E0,5.140329E1,0E0,2.2147968E1,0E0,0E0,0E0,0E0],"parents":[2147483647,0,0,1,1,2,2,3,3,6,6,8,8],"right_children":[2,4,6,8,-1,-1,10,-1,12,-1,-1,-1,-1],"split_conditions":[4.8E1,7E0,1E0,4E0,7.70856E-2,-5.3838283E-2,2E0,-5.3593595E-2,4.1E1,-5.0982684E-2,9.593553E-2,-5.277415E-2,8.906011E-2],"split_indices":[0,9,38,26,0,0,8,0,0,0,0,0,0],"split_type":[0,0,0,0,0,0,0,0,0,0,0,0,0],"sum_hessian":[1.340963E3,6.711654E2,6.6979755E2,6.581257E2,1.3039768E1,1.9184059E2,4.7795697E2,5.8606805E2,7.205762E1,2.4441927E1,4.5351505E2,5.9588947E1,1.2468672E1],"tree_param":{"num_deleted":"0","num_feature":"55","num_nodes":"13","size_leaf_vector":"1"}},{"base_weights":[-5.704389E-3,-5.1873118E-2,7.9246426E-1,9.0967965E-1,-4.997386E-2,9.7934836E-1,-4.7929466E-2,1.036667E0,-4.652215E-2,1.05922036E-1,-4.027045E-2],"categories":[],"categories_nodes":[],"categories_segments":[],"categories_sizes":[],"default_left":[0,0,0,0,0,0,0,0,0,0,0],"id":67,"left_children":[1,-1,3,5,-1,7,-1,9,-1,-1,-1],"loss_changes":[3.197683E2,0E0,4.6767944E1,2.7664337E1,0E0,2.2689789E1,0E0,8.857178E0,0E0,0E0,0E0],"parents":[2147483647,0,0,2,2,3,3,5,5,7,7],"right_children":[2,-1,4,6,-1,8,-1,10,-1,-1,-1],"split_conditions":[7E0,-5.1873118E-2,9E0,1E0,-4.997386E-2,1E0,-4.7929466E-2,1E0,-4.652215E-2,1.05922036E-1,-4.027045E-2],"split_indices":[9,0,9,24,0,27,0,10,0,0,0],"split_type":[0,0,0,0,0,0,0,0,0,0,0],"sum_hessian":[7.7897253E2,4.744761E2,3.0449646E2,2.795151E2,2.4981329E1,2.665141E2,1.3001015E1,2.5668094E2,9.833166E0,2.5304951E2,3.6314251E0],"tree_param":{"num_deleted":"0","num_feature":"55","num_nodes":"11","size_leaf_vector":"1"}},{"base_weights":[-4.72663E-3,-4.8125154E-1,6.863061E-1,-5.100357E-1,1.664906E-1,8.6815363E-1,-5.0682195E-2,-5.1616143E-2,-2.0113559E-1,1.105027E-1,-4.75523E-2,9.682998E-1,-4.9076684E-2,-4.378118E-2,2.1539366E-2,9.967574E-1,-4.1692138E-2,1.0177219E-1,-3.8628727E-2],"categories":[],"categories_nodes":[],"categories_segments":[],"categories_sizes":[],"default_left":[0,0,0,0,0,0,0,0,0,0,0,0,0,0,0,0,0,0,0],"id":68,"left_children":[1,3,5,7,9,11,-1,-1,13,-1,-1,15,-1,-1,-1,17,-1,-1,-1],"loss_changes":[2.5781924E2,8.761314E0,6.979556E1,6.6495514E-1,1.283659E1,3.8312515E1,0E0,0E0,1.1608424E0,0E0,0E0,1.0684311E1,0E0,0E0,0E0,7.8260803E0,0E0,0E0,0E0],"parents":[2147483647,0,0,1,1,2,2,3,3,4,4,5,5,8,8,11,11,15,15],"right_children":[2,4,6,8,10,12,-1,-1,14,-1,-1,16,-1,-1,-1,18,-1,-1,-1],"split_conditions":[2.2E1,2E0,1E0,1E0,2E0,3.020233E0,-5.0682195E-2,-5.1616143E-2,4.04E2,1.105027E-1,-4.75523E-2,1E0,-4.9076684E-2,-4.378118E-2,2.1539366E-2,1E0,-4.1692138E-2,1.0177219E-1,-3.8628727E-2],"split_indices":[4,10,26,27,6,46,0,0,44,0,0,14,0,0,0,38,0,0,0],"split_type":[0,0,0,0,0,0,0,0,0,0,0,0,0,0,0,0,0,0,0],"sum_hessian":[7.81004E2,4.6251175E2,3.1849228E2,4.431846E2,1.9327126E1,2.766791E2,4.1813156E1,4.3359146E2,9.593139E0,7.6209326E0,1.1706194E1,2.580249E2,1.865421E1,6.237762E0,3.3553765E0,2.5317635E2,4.848557E0,2.4972739E2,3.4489646E0],"tree_param":{"num_deleted":"0","num_feature":"55","num_nodes":"19","size_leaf_vector":"1"}},{"base_weights":[-1.8970005E-2,6.7638963E-1,-5.1310312E-2,1.0341783E-1,-5.0507035E-2],"categories":[],"categories_nodes":[],"categories_segments":[],"categories_sizes":[],"default_left":[0,0,0,0,0],"id":69,"left_children":[1,3,-1,-1,-1],"loss_changes":[2.0459618E2,1.0511455E2,0E0,0E0,0E0],"parents":[2147483647,0,0,1,1],"right_children":[2,4,-1,-1,-1],"split_conditions":[1E0,2E0,-5.1310312E-2,1.0341783E-1,-5.0507035E-2],"split_indices":[15,2,0,0,0],"split_type":[0,0,0,0,0],"sum_hessian":[5.934858E2,2.4630559E2,3.4718018E2,1.8921405E2,5.7091534E1],"tree_param":{"num_deleted":"0","num_feature":"55","num_nodes":"5","size_leaf_vector":"1"}},{"base_weights":[-9.655594E-3,9.7168183E-1,-2.4125722E-1,-3.9037947E-2,1.0023802E-1,8.799155E-2,-5.2433264E-2,9.374666E-1,-5.2046653E-2,9.902471E-2,-4.8211746E-2],"categories":[],"categories_nodes":[],"categories_segments":[],"categories_sizes":[],"default_left":[0,0,0,0,0,0,0,0,0,0,0],"id":70,"left_children":[1,3,5,-1,-1,7,-1,9,-1,-1,-1],"loss_changes":[2.15619E2,8.02597E0,7.16559E1,0E0,0E0,1.843655E2,0E0,1.1681961E1,0E0,0E0,0E0],"parents":[2147483647,0,0,1,1,2,2,5,5,7,7],"right_children":[2,4,6,-1,-1,8,-1,10,-1,-1,-1],"split_conditions":[2.7E1,2E0,9.1829586E-1,-3.9037947E-2,1.0023802E-1,2E0,-5.2433264E-2,4.29E2,-5.2046653E-2,9.902471E-2,-4.8211746E-2],"split_indices":[0,8,16,0,0,12,0,44,0,0,0],"split_type":[0,0,0,0,0,0,0,0,0,0,0],"sum_hessian":[9.469859E2,1.8012727E2,7.6685864E2,3.6401916E0,1.7648708E2,3.5467145E2,4.121872E2,1.4786253E2,2.0680891E2,1.4292155E2,4.940978E0],"tree_param":{"num_deleted":"0","num_feature":"55","num_nodes":"11","size_leaf_vector":"1"}},{"base_weights":[1.3432121E-3,3.8887218E-1,-5.1298317E-2,-5.0826844E-2,7.859968E-1,8.962745E-1,-4.8383806E-2,-4.6514288E-2,9.7150123E-1,1.0191525E0,-4.346314E-2,5.853006E-1,1.0566332E-1,9.6553093E-1,-4.156257E-2,1.2796344E-1,5.6865074E-2],"categories":[],"categories_nodes":[],"categories_segments":[],"categories_sizes":[],"default_left":[0,0,0,0,0,0,0,0,0,0,0,0,0,0,0,0,0],"id":71,"left_children":[1,3,-1,-1,5,7,-1,-1,9,11,-1,13,-1,15,-1,-1,-1],"loss_changes":[1.1942457E2,1.222206E2,0E0,0E0,3.372316E1,2.2919144E1,0E0,0E0,1.4425674E1,2.4918365E0,0E0,7.484494E0,0E0,8.0239296E-1,0E0,0E0,0E0],"parents":[2147483647,0,0,1,1,4,4,5,5,8,8,9,9,11,11,13,13],"right_children":[2,4,-1,-1,6,8,-1,-1,10,12,-1,14,-1,16,-1,-1,-1],"split_conditions":[4.9976665E-1,2E0,-5.1298317E-2,-5.0826844E-2,1E0,2.7E1,-4.8383806E-2,-4.6514288E-2,3E0,2.6E1,-4.346314E-2,7E0,1.0566332E-1,2.9E1,-4.156257E-2,1.2796344E-1,5.6865074E-2],"split_indices":[46,8,0,0,38,0,0,0,8,7,0,4,0,0,0,0,0],"split_type":[0,0,0,0,0,0,0,0,0,0,0,0,0,0,0,0,0],"sum_hessian":[5.9723236E2,3.4085046E2,2.5638193E2,1.0442138E2,2.3642908E2,2.1788037E2,1.8548706E1,1.1067817E1,2.0681256E2,2.0036876E2,6.4438014E0,1.746696E1,1.829018E2,1.2756363E1,4.710597E0,5.7385197E0,7.0178437E0],"tree_param":{"num_deleted":"0","num_feature":"55","num_nodes":"17","size_leaf_vector":"1"}},{"base_weights":[9.610542E-3,-6.217138E-2,5.714602E-1,6.6252303E-1,-6.1701484E-2,-5.8176924E-2,6.754421E-1,-5.412379E-2,6.829809E-1,6.8649486E-2,-4.7170922E-2],"categories":[],"categories_nodes":[],"categories_segments":[],"categories_sizes":[],"default_left":[0,0,0,0,0,0,0,0,0,0,0],"id":72,"left_children":[1,-1,3,5,-1,-1,7,-1,9,-1,-1],"loss_changes":[9.4264044E2,0E0,1.5260086E2,2.1407349E1,0E0,0E0,1.2251038E1,0E0,5.5646973E0,0E0,0E0],"parents":[2147483647,0,0,2,2,3,3,6,6,8,8],"right_children":[2,-1,4,6,-1,-1,8,-1,10,-1,-1],"split_conditions":[2E0,-6.217138E-2,4.01E2,1E0,-6.1701484E-2,-5.8176924E-2,1E0,-5.412379E-2,1.8E1,6.8649486E-2,-4.7170922E-2],"split_indices":[12,0,44,19,0,0,42,0,4,0,0],"split_type":[0,0,0,0,0,0,0,0,0,0,0],"sum_hessian":[2.6555134E3,1.2503118E3,1.4052018E3,1.3056848E3,9.9516975E1,1.2885129E1,1.2927997E3,7.4435062E0,1.2853562E3,1.281947E3,3.4091048E0],"tree_param":{"num_deleted":"0","num_feature":"55","num_nodes":"11","size_leaf_vector":"1"}},{"base_weights":[-1.700487E-3,-4.003692E-1,8.0945843E-1,-5.038979E-1,1.4453867E-1,-5.1073868E-2,8.902937E-2,-5.3317238E-2,-3.4401858E-1,8.749858E-2,-5.278147E-2,5.3548056E-1,-5.291347E-2,8.302216E-2,-4.153456E-2],"categories":[],"categories_nodes":[],"categories_segments":[],"categories_sizes":[],"default_left":[0,0,0,0,0,0,0,0,0,0,0,0,0,0,0],"id":73,"left_children":[1,3,5,7,9,-1,-1,-1,11,-1,-1,13,-1,-1,-1],"loss_changes":[4.0806784E2,4.7846863E1,4.48638E1,3.0588837E0,6.7155495E1,0E0,0E0,0E0,1.8755222E1,0E0,0E0,6.0281944E0,0E0,0E0,0E0],"parents":[2147483647,0,0,1,1,2,2,3,3,4,4,8,8,11,11],"right_children":[2,4,6,8,10,-1,-1,-1,12,-1,-1,14,-1,-1,-1],"split_conditions":[1E0,3.2692307E-1,2E0,1.1764706E-1,4.1E1,-5.1073868E-2,8.902937E-2,-5.3317238E-2,1.19205296E-1,8.749858E-2,-5.278147E-2,7E0,-5.291347E-2,8.302216E-2,-4.153456E-2],"split_indices":[20,17,2,18,0,0,0,0,18,0,0,3,0,0,0],"split_type":[0,0,0,0,0,0,0,0,0,0,0,0,0,0,0],"sum_hessian":[1.2599933E3,8.4521594E2,4.1477737E2,7.104871E2,1.3472882E2,2.3553162E1,3.912242E2,5.980262E2,1.1246096E2,6.45015E1,7.022732E1,1.9131767E1,9.332919E1,1.4781692E1,4.3500767E0],"tree_param":{"num_deleted":"0","num_feature":"55","num_nodes":"15","size_leaf_vector":"1"}},{"base_weights":[-1.8075762E-3,-5.34118E-2,8.4118223E-1,-4.9318027E-2,8.802158E-1,-4.3490544E-2,8.9429915E-2],"categories":[],"categories_nodes":[],"categories_segments":[],"categories_sizes":[],"default_left":[0,0,0,0,0,0,0],"id":74,"left_children":[1,-1,3,-1,5,-1,-1],"loss_changes":[5.73451E2,0E0,2.623291E1,0E0,9.342804E0,0E0,0E0],"parents":[2147483647,0,0,2,2,4,4],"right_children":[2,-1,4,-1,6,-1,-1],"split_conditions":[1E0,-5.34118E-2,3.251629E0,-4.9318027E-2,2.2E1,-4.3490544E-2,8.9429915E-2],"split_indices":[24,0,16,0,7,0,0],"split_type":[0,0,0,0,0,0,0],"sum_hessian":[1.2760028E3,7.8242285E2,4.9358002E2,1.3624642E1,4.7995538E2,4.693449E0,4.7526193E2],"tree_param":{"num_deleted":"0","num_feature":"55","num_nodes":"7","size_leaf_vector":"1"}},{"base_weights":[1.0033161E-3,-5.1699996E-2,7.335459E-1,8.407188E-1,-4.9750336E-2,9.075626E-1,-4.7836404E-2,9.577468E-2,-4.60108E-2],"categories":[],"categories_nodes":[],"categories_segments":[],"categories_sizes":[],"default_left":[0,0,0,0,0,0,0,0,0],"id":75,"left_children":[1,-1,3,5,-1,7,-1,-1,-1],"loss_changes":[2.8338492E2,0E0,4.1273514E1,2.5612335E1,0E0,1.9141281E1,0E0,0E0,0E0],"parents":[2147483647,0,0,2,2,3,3,5,5],"right_children":[2,-1,4,6,-1,8,-1,-1,-1],"split_conditions":[7E0,-5.1699996E-2,9E0,1E0,-4.9750336E-2,1E0,-4.7836404E-2,9.577468E-2,-4.60108E-2],"split_indices":[9,0,9,24,0,27,0,0,0],"split_type":[0,0,0,0,0,0,0,0,0],"sum_hessian":[7.447557E2,4.363541E2,3.0840158E2,2.8406934E2,2.4332256E1,2.7073764E2,1.3331699E1,2.6151468E2,9.222969E0],"tree_param":{"num_deleted":"0","num_feature":"55","num_nodes":"9","size_leaf_vector":"1"}},{"base_weights":[-6.658541E-3,-4.835152E-1,6.477967E-1,-5.125908E-1,1.4115408E-1,2.9492888E-1,9.423452E-2,-5.1669728E-2,-2.901478E-1,-2.1590208E-1,9.284862E-2,-4.5609298E-1,8.800478E-1,-4.321851E-2,3.437264E-4,7.6207356E-3,-4.498109E-2,-1.1702976E-1,-4.961364E-2,9.9506885E-2,4.646158E-1,2.2832172E-2,-3.9931778E-2,-4.4559557E-2,1.0197735E-1],"categories":[],"categories_nodes":[],"categories_segments":[],"categories_sizes":[],"default_left":[0,0,0,0,0,0,0,0,0,0,0,0,0,0,0,0,0,0,0,0,0,0,0,0,0],"id":76,"left_children":[1,3,5,7,9,11,-1,-1,13,15,-1,17,19,-1,-1,-1,-1,21,-1,-1,23,-1,-1,-1,-1],"loss_changes":[2.3096765E2,7.887581E0,3.201526E1,1.4351654E-1,5.8035107E0,6.3506462E1,0E0,0E0,4.6744978E-1,1.046118E0,0E0,7.4180317E-1,3.2659683E0,0E0,0E0,0E0,0E0,9.1471183E-1,0E0,0E0,1.0438815E1,0E0,0E0,0E0,0E0],"parents":[2147483647,0,0,1,1,2,2,3,3,4,4,5,5,8,8,9,9,11,11,12,12,17,17,20,20],"right_children":[2,4,6,8,10,12,-1,-1,14,16,-1,18,20,-1,-1,-1,-1,22,-1,-1,24,-1,-1,-1,-1],"split_conditions":[2.2E1,4E0,1E1,4E0,1E0,1E0,9.423452E-2,-5.1669728E-2,3.5711E4,2.0388E4,9.284862E-2,1E0,2E0,-4.321851E-2,3.437264E-4,7.6207356E-3,-4.498109E-2,6.8E1,-4.961364E-2,9.9506885E-2,3E0,2.2832172E-2,-3.9931778E-2,-4.4559557E-2,1.0197735E-1],"split_indices":[4,8,8,10,10,10,0,0,45,45,0,5,6,0,0,0,0,7,0,0,8,0,0,0,0],"split_type":[0,0,0,0,0,0,0,0,0,0,0,0,0,0,0,0,0,0,0,0,0,0,0,0,0],"sum_hessian":[7.3813696E2,4.2724603E2,3.108909E2,4.0856848E2,1.8677557E1,1.4250787E2,1.6838303E2,3.9942245E2,9.146026E0,1.3261993E1,5.415562E0,6.242836E1,8.007951E1,6.0753E0,3.0707252E0,6.0070133E0,7.2549806E0,7.2721415E0,5.5156216E1,6.1434193E1,1.8645317E1,3.1973844E0,4.074757E0,7.070337E0,1.1574981E1],"tree_param":{"num_deleted":"0","num_feature":"55","num_nodes":"25","size_leaf_vector":"1"}},{"base_weights":[-1.0289837E-2,6.444185E-1,-5.118208E-2,9.5481984E-2,-5.0295472E-2],"categories":[],"categories_nodes":[],"categories_segments":[],"categories_sizes":[],"default_left":[0,0,0,0,0],"id":77,"left_children":[1,3,-1,-1,-1],"loss_changes":[1.8735466E2,8.864821E1,0E0,0E0,0E0],"parents":[2147483647,0,0,1,1],"right_children":[2,4,-1,-1,-1],"split_conditions":[1E0,2E0,-5.118208E-2,9.5481984E-2,-5.0295472E-2],"split_indices":[15,2,0,0,0],"split_type":[0,0,0,0,0],"sum_hessian":[5.6861896E2,2.4643439E2,3.2218457E2,1.9416225E2,5.227215E1],"tree_param":{"num_deleted":"0","num_feature":"55","num_nodes":"5","size_leaf_vector":"1"}},{"base_weights":[-7.0075574E-3,9.0243775E-1,-2.3317401E-1,-3.7564233E-2,9.286731E-2,8.8923015E-2,-5.221605E-2,-5.1735796E-2,6.917553E-1,8.1828713E-1,-4.8849322E-2,8.903355E-1,-4.7285598E-2,9.225314E-1,-4.167412E-2,6.417928E-1,9.697855E-2,-5.1323663E-2,9.5693186E-2],"categories":[],"categories_nodes":[],"categories_segments":[],"categories_sizes":[],"default_left":[0,0,0,0,0,0,0,0,0,0,0,0,0,0,0,0,0,0,0],"id":78,"left_children":[1,3,5,-1,-1,7,-1,-1,9,11,-1,13,-1,15,-1,17,-1,-1,-1],"loss_changes":[1.8423415E2,6.3848877E0,6.688913E1,0E0,0E0,1.24666046E2,0E0,0E0,2.5974243E1,1.4874199E1,0E0,6.6275864E0,0E0,1.1267776E0,0E0,9.274263E0,0E0,0E0,0E0],"parents":[2147483647,0,0,1,1,2,2,5,5,8,8,9,9,11,11,13,13,15,15],"right_children":[2,4,6,-1,-1,8,-1,-1,10,12,-1,14,-1,16,-1,18,-1,-1,-1],"split_conditions":[2.7E1,2E0,3E0,-3.7564233E-2,9.286731E-2,2E0,-5.221605E-2,-5.1735796E-2,1.2E1,3E0,-4.8849322E-2,4.29E2,-4.7285598E-2,2.1621622E-1,-4.167412E-2,1.1E1,9.697855E-2,-5.1323663E-2,9.5693186E-2],"split_indices":[0,8,3,0,0,8,0,0,1,5,0,44,0,17,0,1,0,0,0],"split_type":[0,0,0,0,0,0,0,0,0,0,0,0,0,0,0,0,0,0,0],"sum_hessian":[8.9400806E2,1.7736551E2,7.166425E2,3.2230153E0,1.7414249E2,3.3906998E2,3.7757257E2,1.6903941E2,1.7003055E2,1.5392049E2,1.6110071E1,1.4615274E2,7.767735E0,1.4300105E2,3.1516953E0,2.3007923E1,1.19993126E2,4.729116E0,1.8278807E1],"tree_param":{"num_deleted":"0","num_feature":"55","num_nodes":"19","size_leaf_vector":"1"}},{"base_weights":[2.3380591E-4,3.6840957E-1,-5.116413E-2,-5.0661027E-2,7.2461855E-1,8.2173E-1,-4.8066255E-2,-4.6081476E-2,8.8743204E-1,9.359604E-1,-4.4340514E-2,9.5927864E-1,-3.744525E-2,5.5440825E-1,9.8486744E-2,1.0120364E-1,-4.3225177E-2],"categories":[],"categories_nodes":[],"categories_segments":[],"categories_sizes":[],"default_left":[0,0,0,0,0,0,0,0,0,0,0,0,0,0,0,0,0],"id":79,"left_children":[1,3,-1,-1,5,7,-1,-1,9,11,-1,13,-1,15,-1,-1,-1],"loss_changes":[1.0821104E2,1.0453332E2,0E0,0E0,2.8280777E1,1.904541E1,0E0,0E0,1.4047409E1,6.6302795E0,0E0,1.3732758E0,0E0,7.004684E0,0E0,0E0,0E0],"parents":[2147483647,0,0,1,1,4,4,5,5,8,8,9,9,11,11,13,13],"right_children":[2,4,-1,-1,6,8,-1,-1,10,12,-1,14,-1,16,-1,-1,-1],"split_conditions":[4.9976665E-1,2E0,-5.116413E-2,-5.0661027E-2,1E0,2.7E1,-4.8066255E-2,-4.6081476E-2,2.6E1,1E0,-4.4340514E-2,2.6E1,-3.744525E-2,9E0,9.8486744E-2,1.0120364E-1,-4.3225177E-2],"split_indices":[46,8,0,0,38,0,0,0,2,48,0,7,0,1,0,0,0],"split_type":[0,0,0,0,0,0,0,0,0,0,0,0,0,0,0,0,0],"sum_hessian":[5.722614E2,3.331283E2,2.3913312E2,9.617455E1,2.3695374E2,2.1965681E2,1.729692E1,1.0336967E1,2.0931985E2,2.023144E2,7.0054407E0,1.991155E2,3.19891E0,1.34162E1,1.856993E2,9.216894E0,4.199305E0],"tree_param":{"num_deleted":"0","num_feature":"55","num_nodes":"17","size_leaf_vector":"1"}},{"base_weights":[3.9670733E-3,-6.092289E-2,5.552473E-1,6.380981E-1,-6.0288902E-2,-5.7374455E-2,6.527182E-1,-5.2918702E-2,6.604518E-1,6.642888E-2,-4.6786148E-2],"categories":[],"categories_nodes":[],"categories_segments":[],"categories_sizes":[],"default_left":[0,0,0,0,0,0,0,0,0,0,0],"id":80,"left_children":[1,-1,3,5,-1,-1,7,-1,9,-1,-1],"loss_changes":[8.384519E2,0E0,1.25720245E2,2.1989319E1,0E0,0E0,1.1382141E1,0E0,5.5178223E0,0E0,0E0],"parents":[2147483647,0,0,2,2,3,3,6,6,8,8],"right_children":[2,-1,4,6,-1,-1,8,-1,10,-1,-1],"split_conditions":[2E0,-6.092289E-2,4.01E2,1E0,-6.0288902E-2,-5.7374455E-2,1E0,-5.2918702E-2,1.8E1,6.642888E-2,-4.6786148E-2],"split_indices":[12,0,44,19,0,0,42,0,4,0,0],"split_type":[0,0,0,0,0,0,0,0,0,0,0],"sum_hessian":[2.4783281E3,1.1731415E3,1.3051866E3,1.2185493E3,8.6637314E1,1.3988276E1,1.204561E3,7.3083053E0,1.1972527E3,1.1936934E3,3.559331E0],"tree_param":{"num_deleted":"0","num_feature":"55","num_nodes":"11","size_leaf_vector":"1"}},{"base_weights":[1.8146934E-3,7.145248E-1,-5.3078473E-2,-5.2024145E-2,8.375171E-2],"categories":[],"categories_nodes":[],"categories_segments":[],"categories_sizes":[],"default_left":[0,0,0,0,0],"id":81,"left_children":[1,3,-1,-1,-1],"loss_changes":[4.5551315E2,7.841867E1,0E0,0E0,0E0],"parents":[2147483647,0,0,1,1],"right_children":[2,4,-1,-1,-1],"split_conditions":[1E0,2E0,-5.3078473E-2,-5.2024145E-2,8.375171E-2],"split_indices":[15,2,0,0,0],"split_type":[0,0,0,0,0],"sum_hessian":[1.1979692E3,5.122869E2,6.856823E2,4.6039192E1,4.6624774E2],"tree_param":{"num_deleted":"0","num_feature":"55","num_nodes":"5","size_leaf_vector":"1"}},{"base_weights":[8.8010635E-3,-5.3108852E-2,7.930358E-1,-4.9545076E-2,8.351119E-1,4.7660244E-1,8.394626E-2,5.505223E-3,7.353189E-2],"categories":[],"categories_nodes":[],"categories_segments":[],